<?xml version="1.0"?>
<opencv_storage>
<cascade>
  <stageType>BOOST</stageType>
  <featureType>HAAR</featureType>
  <height>24</height>
  <width>24</width>
  <stageParams>
    <boostType>GAB</boostType>
    <minHitRate>9.9500000476837158e-01</minHitRate>
    <maxFalseAlarm>5.0000000000000000e-01</maxFalseAlarm>
    <weightTrimRate>9.4999999999999996e-01</weightTrimRate>
    <maxDepth>1</maxDepth>
    <maxWeakCount>100</maxWeakCount></stageParams>
  <featureParams>
    <maxCatCount>0</maxCatCount>
    <featSize>1</featSize>
    <mode>BASIC</mode></featureParams>
  <stageNum>20</stageNum>
  <stages>
    <!-- stage 0 -->
    <_>
      <maxWeakCount>6</maxWeakCount>
      <stageThreshold>-1.4913898706436157e+00</stageThreshold>
      <weakClassifiers>
        <_>
          <internalNodes>
            0 -1 102 2.2102150321006775e-01</internalNodes>
          <leafValues>
            -7.5446426868438721e-01 8.2051283121109009e-01</leafValues></_>
        <_>
          <internalNodes>
            0 -1 52 2.2348043322563171e-01</internalNodes>
          <leafValues>
            -5.6653070449829102e-01 5.8295923471450806e-01</leafValues></_>
        <_>
          <internalNodes>
            0 -1 122 6.4375274814665318e-04</internalNodes>
          <leafValues>
            2.5452136993408203e-01 -7.8363180160522461e-01</leafValues></_>
        <_>
          <internalNodes>
            0 -1 148 4.6532889828085899e-03</internalNodes>
          <leafValues>
            2.0801991224288940e-01 -9.7492504119873047e-01</leafValues></_>
        <_>
          <internalNodes>
            0 -1 45 2.6082708500325680e-03</internalNodes>
          <leafValues>
            1.9731099903583527e-01 -7.6126259565353394e-01</leafValues></_>
        <_>
          <internalNodes>
            0 -1 184 1.8215870950371027e-03</internalNodes>
          <leafValues>
            2.0790594816207886e-01 -7.8039962053298950e-01</leafValues></_></weakClassifiers></_>
    <!-- stage 1 -->
    <_>
      <maxWeakCount>6</maxWeakCount>
      <stageThreshold>-1.4494136571884155e+00</stageThreshold>
      <weakClassifiers>
        <_>
          <internalNodes>
            0 -1 118 2.0708322525024414e-01</internalNodes>
          <leafValues>
            -7.1365636587142944e-01 6.9444441795349121e-01</leafValues></_>
        <_>
          <internalNodes>
            0 -1 49 2.1837456524372101e-01</internalNodes>
          <leafValues>
            -5.4517680406570435e-01 4.2091435194015503e-01</leafValues></_>
        <_>
          <internalNodes>
            0 -1 25 3.6800382658839226e-03</internalNodes>
          <leafValues>
            1.8196874856948853e-01 -9.2365485429763794e-01</leafValues></_>
        <_>
          <internalNodes>
            0 -1 75 5.9528183192014694e-03</internalNodes>
          <leafValues>
            2.6480317115783691e-01 -6.8476200103759766e-01</leafValues></_>
        <_>
          <internalNodes>
            0 -1 125 -5.4863598197698593e-03</internalNodes>
          <leafValues>
            -7.7936023473739624e-01 1.7403063178062439e-01</leafValues></_>
        <_>
          <internalNodes>
            0 -1 126 1.4587079640477896e-03</internalNodes>
          <leafValues>
            1.4200785756111145e-01 -8.9454752206802368e-01</leafValues></_></weakClassifiers></_>
    <!-- stage 2 -->
    <_>
      <maxWeakCount>6</maxWeakCount>
      <stageThreshold>-1.3230142593383789e+00</stageThreshold>
      <weakClassifiers>
        <_>
          <internalNodes>
            0 -1 57 2.4083299934864044e-01</internalNodes>
          <leafValues>
            -7.1494251489639282e-01 4.0659341216087341e-01</leafValues></_>
        <_>
          <internalNodes>
            0 -1 95 -8.0817475914955139e-02</internalNodes>
          <leafValues>
            2.7047300338745117e-01 -5.4367196559906006e-01</leafValues></_>
        <_>
          <internalNodes>
            0 -1 59 -3.5959347151219845e-03</internalNodes>
          <leafValues>
            -8.8380140066146851e-01 1.8653121590614319e-01</leafValues></_>
        <_>
          <internalNodes>
            0 -1 27 -2.0428446587175131e-03</internalNodes>
          <leafValues>
            -4.9065575003623962e-01 3.1983757019042969e-01</leafValues></_>
        <_>
          <internalNodes>
            0 -1 112 -7.0281792432069778e-03</internalNodes>
          <leafValues>
            -7.2369658946990967e-01 2.2234633564949036e-01</leafValues></_>
        <_>
          <internalNodes>
            0 -1 163 5.6431903503835201e-03</internalNodes>
          <leafValues>
            1.5292799472808838e-01 -8.4942042827606201e-01</leafValues></_></weakClassifiers></_>
    <!-- stage 3 -->
    <_>
      <maxWeakCount>6</maxWeakCount>
      <stageThreshold>-1.2886660099029541e+00</stageThreshold>
      <weakClassifiers>
        <_>
          <internalNodes>
            0 -1 35 2.8960627317428589e-01</internalNodes>
          <leafValues>
            -7.1685391664505005e-01 5.5555558204650879e-01</leafValues></_>
        <_>
          <internalNodes>
            0 -1 181 -2.2043441422283649e-03</internalNodes>
          <leafValues>
            -8.0611443519592285e-01 1.1412853747606277e-01</leafValues></_>
        <_>
          <internalNodes>
            0 -1 21 5.2350889891386032e-03</internalNodes>
          <leafValues>
            1.8741926550865173e-01 -7.8773158788681030e-01</leafValues></_>
        <_>
          <internalNodes>
            0 -1 191 6.8850144743919373e-03</internalNodes>
          <leafValues>
            1.7154319584369659e-01 -8.7992376089096069e-01</leafValues></_>
        <_>
          <internalNodes>
            0 -1 90 1.0682359337806702e-01</internalNodes>
          <leafValues>
            -2.8186058998107910e-01 6.4699858427047729e-01</leafValues></_>
        <_>
          <internalNodes>
            0 -1 34 4.3909670785069466e-03</internalNodes>
          <leafValues>
            2.1210843324661255e-01 -7.5666397809982300e-01</leafValues></_></weakClassifiers></_>
    <!-- stage 4 -->
    <_>
      <maxWeakCount>7</maxWeakCount>
      <stageThreshold>-1.1152938604354858e+00</stageThreshold>
      <weakClassifiers>
        <_>
          <internalNodes>
            0 -1 88 3.2956129312515259e-01</internalNodes>
          <leafValues>
            -7.0251715183258057e-01 3.7078651785850525e-01</leafValues></_>
        <_>
          <internalNodes>
            0 -1 6 3.7475034594535828e-01</internalNodes>
          <leafValues>
            -4.2857259511947632e-01 4.6568876504898071e-01</leafValues></_>
        <_>
          <internalNodes>
            0 -1 168 -1.0456338524818420e-02</internalNodes>
          <leafValues>
            -6.7474430799484253e-01 2.1872036159038544e-01</leafValues></_>
        <_>
          <internalNodes>
            0 -1 19 -1.6331349033862352e-03</internalNodes>
          <leafValues>
            -7.4666708707809448e-01 2.0212385058403015e-01</leafValues></_>
        <_>
          <internalNodes>
            0 -1 11 1.6311146318912506e-02</internalNodes>
          <leafValues>
            2.0615805685520172e-01 -6.8707102537155151e-01</leafValues></_>
        <_>
          <internalNodes>
            0 -1 20 -1.5314545016735792e-03</internalNodes>
          <leafValues>
            -6.8531811237335205e-01 2.1705037355422974e-01</leafValues></_>
        <_>
          <internalNodes>
            0 -1 32 3.2322530169039965e-03</internalNodes>
          <leafValues>
            1.2053414434194565e-01 -9.4604831933975220e-01</leafValues></_></weakClassifiers></_>
    <!-- stage 5 -->
    <_>
      <maxWeakCount>6</maxWeakCount>
      <stageThreshold>-1.6005719900131226e+00</stageThreshold>
      <weakClassifiers>
        <_>
          <internalNodes>
            0 -1 82 7.8491225838661194e-02</internalNodes>
          <leafValues>
            -8.1052631139755249e-01 2.3287671804428101e-01</leafValues></_>
        <_>
          <internalNodes>
            0 -1 85 -5.0433840602636337e-02</internalNodes>
          <leafValues>
            2.5109970569610596e-01 -6.3825762271881104e-01</leafValues></_>
        <_>
          <internalNodes>
            0 -1 175 -3.7691512261517346e-05</internalNodes>
          <leafValues>
            3.7687391042709351e-01 -4.0245559811592102e-01</leafValues></_>
        <_>
          <internalNodes>
            0 -1 140 4.3633277527987957e-05</internalNodes>
          <leafValues>
            -3.7780013680458069e-01 3.5818293690681458e-01</leafValues></_>
        <_>
          <internalNodes>
            0 -1 76 -2.1469546481966972e-03</internalNodes>
          <leafValues>
            -8.4983801841735840e-01 2.0526134967803955e-01</leafValues></_>
        <_>
          <internalNodes>
            0 -1 128 4.9973921850323677e-03</internalNodes>
          <leafValues>
            -4.6615099906921387e-01 3.2324492931365967e-01</leafValues></_></weakClassifiers></_>
    <!-- stage 6 -->
    <_>
      <maxWeakCount>11</maxWeakCount>
      <stageThreshold>-9.6132868528366089e-01</stageThreshold>
      <weakClassifiers>
        <_>
          <internalNodes>
            0 -1 56 3.2466924190521240e-01</internalNodes>
          <leafValues>
            -6.5577340126037598e-01 4.0298506617546082e-01</leafValues></_>
        <_>
          <internalNodes>
            0 -1 93 1.0564925149083138e-02</internalNodes>
          <leafValues>
            -3.2235744595527649e-01 4.2930161952972412e-01</leafValues></_>
        <_>
          <internalNodes>
            0 -1 134 -6.3635793048888445e-04</internalNodes>
          <leafValues>
            5.1471298933029175e-01 -2.4779179692268372e-01</leafValues></_>
        <_>
          <internalNodes>
            0 -1 78 1.3209526240825653e-01</internalNodes>
          <leafValues>
            -3.9030665159225464e-01 2.9893141984939575e-01</leafValues></_>
        <_>
          <internalNodes>
            0 -1 92 4.3076761066913605e-02</internalNodes>
          <leafValues>
            -1.4570972323417664e-01 8.1818151473999023e-01</leafValues></_>
        <_>
          <internalNodes>
            0 -1 73 -5.5339850485324860e-02</internalNodes>
          <leafValues>
            7.9260885715484619e-01 -1.2132846564054489e-01</leafValues></_>
        <_>
          <internalNodes>
            0 -1 129 -1.6763468738645315e-03</internalNodes>
          <leafValues>
            5.5077856779098511e-01 -1.7967325448989868e-01</leafValues></_>
        <_>
          <internalNodes>
            0 -1 189 -8.9007932692766190e-03</internalNodes>
          <leafValues>
            -7.5432449579238892e-01 1.4953404664993286e-01</leafValues></_>
        <_>
          <internalNodes>
            0 -1 86 2.6742578484117985e-03</internalNodes>
          <leafValues>
            1.8489840626716614e-01 -6.3822603225708008e-01</leafValues></_>
        <_>
          <internalNodes>
            0 -1 46 -2.2193221957422793e-04</internalNodes>
          <leafValues>
            4.0021544694900513e-01 -3.7448605895042419e-01</leafValues></_>
        <_>
          <internalNodes>
            0 -1 121 -1.5722413081675768e-03</internalNodes>
          <leafValues>
            5.3136032819747925e-01 -2.4673828482627869e-01</leafValues></_></weakClassifiers></_>
    <!-- stage 7 -->
    <_>
      <maxWeakCount>10</maxWeakCount>
      <stageThreshold>-1.0430887937545776e+00</stageThreshold>
      <weakClassifiers>
        <_>
          <internalNodes>
            0 -1 15 -8.9358031749725342e-02</internalNodes>
          <leafValues>
            1.7647059261798859e-01 -6.2445414066314697e-01</leafValues></_>
        <_>
          <internalNodes>
            0 -1 10 4.2547811754047871e-03</internalNodes>
          <leafValues>
            1.5328112244606018e-01 -6.0697996616363525e-01</leafValues></_>
        <_>
          <internalNodes>
            0 -1 113 -4.5690480619668961e-03</internalNodes>
          <leafValues>
            -5.6282114982604980e-01 1.6209505498409271e-01</leafValues></_>
        <_>
          <internalNodes>
            0 -1 100 1.6485610976815224e-02</internalNodes>
          <leafValues>
            2.0553062856197357e-01 -7.0652323961257935e-01</leafValues></_>
        <_>
          <internalNodes>
            0 -1 109 -3.4911197144538164e-04</internalNodes>
          <leafValues>
            4.0728485584259033e-01 -3.1732404232025146e-01</leafValues></_>
        <_>
          <internalNodes>
            0 -1 190 1.0816538706421852e-02</internalNodes>
          <leafValues>
            2.2559987008571625e-01 -5.6723415851593018e-01</leafValues></_>
        <_>
          <internalNodes>
            0 -1 16 7.0445731282234192e-02</internalNodes>
          <leafValues>
            -3.4267118573188782e-01 3.6102327704429626e-01</leafValues></_>
        <_>
          <internalNodes>
            0 -1 174 8.3987768739461899e-03</internalNodes>
          <leafValues>
            1.6749028861522675e-01 -6.7627942562103271e-01</leafValues></_>
        <_>
          <internalNodes>
            0 -1 106 -5.3723961114883423e-02</internalNodes>
          <leafValues>
            5.6394070386886597e-01 -2.2462062537670135e-01</leafValues></_>
        <_>
          <internalNodes>
            0 -1 149 -3.1130958814173937e-04</internalNodes>
          <leafValues>
            4.4650110602378845e-01 -2.3965635895729065e-01</leafValues></_></weakClassifiers></_>
    <!-- stage 8 -->
    <_>
      <maxWeakCount>11</maxWeakCount>
      <stageThreshold>-1.1594370603561401e+00</stageThreshold>
      <weakClassifiers>
        <_>
          <internalNodes>
            0 -1 103 3.3873182535171509e-01</internalNodes>
          <leafValues>
            -6.5548098087310791e-01 2.4050633609294891e-01</leafValues></_>
        <_>
          <internalNodes>
            0 -1 96 -5.3537415806204081e-04</internalNodes>
          <leafValues>
            4.9700856208801270e-01 -2.9040485620498657e-01</leafValues></_>
        <_>
          <internalNodes>
            0 -1 62 1.2280736700631678e-04</internalNodes>
          <leafValues>
            -2.6525345444679260e-01 3.8170811533927917e-01</leafValues></_>
        <_>
          <internalNodes>
            0 -1 101 -9.2560723423957825e-03</internalNodes>
          <leafValues>
            -4.9163106083869934e-01 2.1477696299552917e-01</leafValues></_>
        <_>
          <internalNodes>
            0 -1 152 -7.9281441867351532e-04</internalNodes>
          <leafValues>
            4.7859936952590942e-01 -2.7884161472320557e-01</leafValues></_>
        <_>
          <internalNodes>
            0 -1 172 2.4592040106654167e-02</internalNodes>
          <leafValues>
            2.6010841131210327e-01 -6.2199479341506958e-01</leafValues></_>
        <_>
          <internalNodes>
            0 -1 91 -1.5752844046801329e-03</internalNodes>
          <leafValues>
            7.4195516109466553e-01 -2.0415242016315460e-01</leafValues></_>
        <_>
          <internalNodes>
            0 -1 13 -3.1934813596308231e-03</internalNodes>
          <leafValues>
            -6.2503463029861450e-01 1.9786253571510315e-01</leafValues></_>
        <_>
          <internalNodes>
            0 -1 55 1.0387592017650604e-02</internalNodes>
          <leafValues>
            1.6676895320415497e-01 -7.1285170316696167e-01</leafValues></_>
        <_>
          <internalNodes>
            0 -1 31 -9.9518820643424988e-03</internalNodes>
          <leafValues>
            -5.9085834026336670e-01 1.9615662097930908e-01</leafValues></_>
        <_>
          <internalNodes>
            0 -1 136 -4.4471845030784607e-03</internalNodes>
          <leafValues>
            3.8136637210845947e-01 -2.8091546893119812e-01</leafValues></_></weakClassifiers></_>
    <!-- stage 9 -->
    <_>
      <maxWeakCount>13</maxWeakCount>
      <stageThreshold>-1.3319671154022217e+00</stageThreshold>
      <weakClassifiers>
        <_>
          <internalNodes>
            0 -1 50 -3.2345240470021963e-04</internalNodes>
          <leafValues>
            -8.6206898093223572e-02 -6.4390242099761963e-01</leafValues></_>
        <_>
          <internalNodes>
            0 -1 29 2.0778921898454428e-03</internalNodes>
          <leafValues>
            3.1448889523744583e-02 -7.7127104997634888e-01</leafValues></_>
        <_>
          <internalNodes>
            0 -1 143 2.8146957047283649e-03</internalNodes>
          <leafValues>
            2.0647788047790527e-01 -5.1767134666442871e-01</leafValues></_>
        <_>
          <internalNodes>
            0 -1 24 2.9194168746471405e-03</internalNodes>
          <leafValues>
            1.4128871262073517e-01 -7.0742022991180420e-01</leafValues></_>
        <_>
          <internalNodes>
            0 -1 65 1.8345037242397666e-03</internalNodes>
          <leafValues>
            1.4407411217689514e-01 -5.3785818815231323e-01</leafValues></_>
        <_>
          <internalNodes>
            0 -1 137 -8.7667111074551940e-04</internalNodes>
          <leafValues>
            3.5006520152091980e-01 -2.7707672119140625e-01</leafValues></_>
        <_>
          <internalNodes>
            0 -1 183 -3.1681612599641085e-03</internalNodes>
          <leafValues>
            -5.0688308477401733e-01 1.9505150616168976e-01</leafValues></_>
        <_>
          <internalNodes>
            0 -1 99 4.4865056406706572e-04</internalNodes>
          <leafValues>
            -2.9998061060905457e-01 3.4516930580139160e-01</leafValues></_>
        <_>
          <internalNodes>
            0 -1 2 -1.2746561318635941e-02</internalNodes>
          <leafValues>
            -7.6795023679733276e-01 1.1518403887748718e-01</leafValues></_>
        <_>
          <internalNodes>
            0 -1 1 1.0816456750035286e-02</internalNodes>
          <leafValues>
            1.4573389291763306e-01 -5.4303836822509766e-01</leafValues></_>
        <_>
          <internalNodes>
            0 -1 105 -1.4858071226626635e-03</internalNodes>
          <leafValues>
            4.7776371240615845e-01 -2.2231525182723999e-01</leafValues></_>
        <_>
          <internalNodes>
            0 -1 171 -5.0693200901150703e-03</internalNodes>
          <leafValues>
            -5.5397349596023560e-01 1.7423391342163086e-01</leafValues></_>
        <_>
          <internalNodes>
            0 -1 54 -5.5941252503544092e-04</internalNodes>
          <leafValues>
            3.4654480218887329e-01 -3.3212426304817200e-01</leafValues></_></weakClassifiers></_>
    <!-- stage 10 -->
    <_>
      <maxWeakCount>10</maxWeakCount>
      <stageThreshold>-9.0194940567016602e-01</stageThreshold>
      <weakClassifiers>
        <_>
          <internalNodes>
            0 -1 104 2.5623565912246704e-01</internalNodes>
          <leafValues>
            -6.8947368860244751e-01 -8.2191780209541321e-02</leafValues></_>
        <_>
          <internalNodes>
            0 -1 23 -2.6358347386121750e-03</internalNodes>
          <leafValues>
            1.2486563622951508e-01 -4.9130564928054810e-01</leafValues></_>
        <_>
          <internalNodes>
            0 -1 141 3.3984621986746788e-03</internalNodes>
          <leafValues>
            1.2755240499973297e-01 -6.4052510261535645e-01</leafValues></_>
        <_>
          <internalNodes>
            0 -1 38 -1.6983478562906384e-03</internalNodes>
          <leafValues>
            3.7138193845748901e-01 -2.2940929234027863e-01</leafValues></_>
        <_>
          <internalNodes>
            0 -1 124 -6.2827905640006065e-04</internalNodes>
          <leafValues>
            1.5473985671997070e-01 -6.1451035737991333e-01</leafValues></_>
        <_>
          <internalNodes>
            0 -1 160 -3.7743087159469724e-04</internalNodes>
          <leafValues>
            4.5486676692962646e-01 -1.9923192262649536e-01</leafValues></_>
        <_>
          <internalNodes>
            0 -1 7 -3.8536358624696732e-03</internalNodes>
          <leafValues>
            -6.7512542009353638e-01 1.4949417114257813e-01</leafValues></_>
        <_>
          <internalNodes>
            0 -1 9 2.7370131574571133e-03</internalNodes>
          <leafValues>
            7.9671077430248260e-02 -8.3549726009368896e-01</leafValues></_>
        <_>
          <internalNodes>
            0 -1 43 -3.1607653945684433e-03</internalNodes>
          <leafValues>
            -5.5166214704513550e-01 1.3872563838958740e-01</leafValues></_>
        <_>
          <internalNodes>
            0 -1 61 -1.9870050891768187e-05</internalNodes>
          <leafValues>
            2.9879078269004822e-01 -3.2744848728179932e-01</leafValues></_></weakClassifiers></_>
    <!-- stage 11 -->
    <_>
      <maxWeakCount>12</maxWeakCount>
      <stageThreshold>-1.3093942403793335e+00</stageThreshold>
      <weakClassifiers>
        <_>
          <internalNodes>
            0 -1 8 -4.0869057178497314e-02</internalNodes>
          <leafValues>
            -8.6206898093223572e-02 -6.4390242099761963e-01</leafValues></_>
        <_>
          <internalNodes>
            0 -1 185 -4.6727109292987734e-05</internalNodes>
          <leafValues>
            1.5657134354114532e-01 -3.8937103748321533e-01</leafValues></_>
        <_>
          <internalNodes>
            0 -1 98 3.7868246436119080e-03</internalNodes>
          <leafValues>
            7.0677116513252258e-02 -1.</leafValues></_>
        <_>
          <internalNodes>
            0 -1 74 -2.5616510538384318e-04</internalNodes>
          <leafValues>
            2.6484522223472595e-01 -2.6769655942916870e-01</leafValues></_>
        <_>
          <internalNodes>
            0 -1 153 4.7968979924917221e-04</internalNodes>
          <leafValues>
            -2.3004609346389771e-01 3.4675890207290649e-01</leafValues></_>
        <_>
          <internalNodes>
            0 -1 164 -7.4018677696585655e-03</internalNodes>
          <leafValues>
            -4.7644087672233582e-01 1.6759547591209412e-01</leafValues></_>
        <_>
          <internalNodes>
            0 -1 133 6.5275644883513451e-03</internalNodes>
          <leafValues>
            -3.1866881251335144e-01 3.1054931879043579e-01</leafValues></_>
        <_>
          <internalNodes>
            0 -1 169 1.0458911769092083e-02</internalNodes>
          <leafValues>
            2.2364491224288940e-01 -4.3322762846946716e-01</leafValues></_>
        <_>
          <internalNodes>
            0 -1 132 3.7987725809216499e-03</internalNodes>
          <leafValues>
            -1.6719493269920349e-01 5.4380893707275391e-01</leafValues></_>
        <_>
          <internalNodes>
            0 -1 176 -4.3836625991389155e-04</internalNodes>
          <leafValues>
            4.4862592220306396e-01 -1.9611355662345886e-01</leafValues></_>
        <_>
          <internalNodes>
            0 -1 14 -5.1640295423567295e-03</internalNodes>
          <leafValues>
            -3.8474741578102112e-01 2.2905117273330688e-01</leafValues></_>
        <_>
          <internalNodes>
            0 -1 42 1.7271140823140740e-03</internalNodes>
          <leafValues>
            1.1542523652315140e-01 -7.8578984737396240e-01</leafValues></_></weakClassifiers></_>
    <!-- stage 12 -->
    <_>
      <maxWeakCount>7</maxWeakCount>
      <stageThreshold>-9.4174134731292725e-01</stageThreshold>
      <weakClassifiers>
        <_>
          <internalNodes>
            0 -1 131 7.1720971027389169e-04</internalNodes>
          <leafValues>
            -6.3274335861206055e-01 1.6216215491294861e-01</leafValues></_>
        <_>
          <internalNodes>
            0 -1 179 -4.3165136594325304e-04</internalNodes>
          <leafValues>
            3.8166126608848572e-01 -3.3826115727424622e-01</leafValues></_>
        <_>
          <internalNodes>
            0 -1 84 -1.6079425404313952e-04</internalNodes>
          <leafValues>
            3.8451969623565674e-01 -2.6132398843765259e-01</leafValues></_>
        <_>
          <internalNodes>
            0 -1 71 5.4197793360799551e-04</internalNodes>
          <leafValues>
            -2.3226232826709747e-01 3.8452470302581787e-01</leafValues></_>
        <_>
          <internalNodes>
            0 -1 68 5.9569630771875381e-02</internalNodes>
          <leafValues>
            -2.5324794650077820e-01 3.8226899504661560e-01</leafValues></_>
        <_>
          <internalNodes>
            0 -1 180 4.0403590537607670e-04</internalNodes>
          <leafValues>
            -2.4529963731765747e-01 4.1247379779815674e-01</leafValues></_>
        <_>
          <internalNodes>
            0 -1 146 2.1803635172545910e-04</internalNodes>
          <leafValues>
            -2.4123361706733704e-01 4.1065257787704468e-01</leafValues></_></weakClassifiers></_>
    <!-- stage 13 -->
    <_>
      <maxWeakCount>10</maxWeakCount>
      <stageThreshold>-1.1452851295471191e+00</stageThreshold>
      <weakClassifiers>
        <_>
          <internalNodes>
            0 -1 116 1.4254779089242220e-03</internalNodes>
          <leafValues>
            -5.8367347717285156e-01 3.3333334326744080e-01</leafValues></_>
        <_>
          <internalNodes>
            0 -1 158 5.7089105248451233e-03</internalNodes>
          <leafValues>
            3.0207997187972069e-02 -8.6168080568313599e-01</leafValues></_>
        <_>
          <internalNodes>
            0 -1 3 3.0832268297672272e-02</internalNodes>
          <leafValues>
            -3.9444601535797119e-01 2.2419606149196625e-01</leafValues></_>
        <_>
          <internalNodes>
            0 -1 173 2.6746233925223351e-04</internalNodes>
          <leafValues>
            -2.6774278283119202e-01 3.1734910607337952e-01</leafValues></_>
        <_>
          <internalNodes>
            0 -1 144 -3.2110496249515563e-05</internalNodes>
          <leafValues>
            3.5078826546669006e-01 -2.4994497001171112e-01</leafValues></_>
        <_>
          <internalNodes>
            0 -1 108 1.3697363901883364e-03</internalNodes>
          <leafValues>
            -1.7640516161918640e-01 5.2802544832229614e-01</leafValues></_>
        <_>
          <internalNodes>
            0 -1 70 -1.7827111150836572e-05</internalNodes>
          <leafValues>
            3.2894748449325562e-01 -2.8464984893798828e-01</leafValues></_>
        <_>
          <internalNodes>
            0 -1 30 8.2736499607563019e-03</internalNodes>
          <leafValues>
            1.5191152691841125e-01 -5.3224718570709229e-01</leafValues></_>
        <_>
          <internalNodes>
            0 -1 72 1.0692942887544632e-03</internalNodes>
          <leafValues>
            -2.8655534982681274e-01 3.3449333906173706e-01</leafValues></_>
        <_>
          <internalNodes>
            0 -1 162 3.7058047018945217e-04</internalNodes>
          <leafValues>
            -2.6981213688850403e-01 3.5402747988700867e-01</leafValues></_></weakClassifiers></_>
    <!-- stage 14 -->
    <_>
      <maxWeakCount>13</maxWeakCount>
      <stageThreshold>-1.0501301288604736e+00</stageThreshold>
      <weakClassifiers>
        <_>
          <internalNodes>
            0 -1 120 -1.2085378170013428e-01</internalNodes>
          <leafValues>
            3.1578946113586426e-01 -5.8606559038162231e-01</leafValues></_>
        <_>
          <internalNodes>
            0 -1 41 4.2984956962754950e-05</internalNodes>
          <leafValues>
            -3.2411429286003113e-01 1.9710636138916016e-01</leafValues></_>
        <_>
          <internalNodes>
            0 -1 87 4.6167033724486828e-04</internalNodes>
          <leafValues>
            -1.8611714243888855e-01 3.9535894989967346e-01</leafValues></_>
        <_>
          <internalNodes>
            0 -1 5 7.5908750295639038e-04</internalNodes>
          <leafValues>
            1.9707003235816956e-01 -3.8419204950332642e-01</leafValues></_>
        <_>
          <internalNodes>
            0 -1 135 -3.6841868422925472e-03</internalNodes>
          <leafValues>
            -7.8412342071533203e-01 1.5040570497512817e-01</leafValues></_>
        <_>
          <internalNodes>
            0 -1 83 -4.7278177225962281e-04</internalNodes>
          <leafValues>
            4.1588491201400757e-01 -2.2065249085426331e-01</leafValues></_>
        <_>
          <internalNodes>
            0 -1 123 8.6391326040029526e-03</internalNodes>
          <leafValues>
            1.2300325930118561e-01 -8.3309370279312134e-01</leafValues></_>
        <_>
          <internalNodes>
            0 -1 69 1.8332398030906916e-04</internalNodes>
          <leafValues>
            -2.7826550602912903e-01 3.2425257563591003e-01</leafValues></_>
        <_>
          <internalNodes>
            0 -1 117 -3.7876530550420284e-03</internalNodes>
          <leafValues>
            -6.2314683198928833e-01 1.6165196895599365e-01</leafValues></_>
        <_>
          <internalNodes>
            0 -1 130 9.7612626850605011e-03</internalNodes>
          <leafValues>
            -1.9637978076934814e-01 4.7643035650253296e-01</leafValues></_>
        <_>
          <internalNodes>
            0 -1 142 1.8079853616654873e-03</internalNodes>
          <leafValues>
            -1.7187774181365967e-01 4.2628341913223267e-01</leafValues></_>
        <_>
          <internalNodes>
            0 -1 170 -2.1052209660410881e-02</internalNodes>
          <leafValues>
            -6.9025206565856934e-01 1.1416637897491455e-01</leafValues></_>
        <_>
          <internalNodes>
            0 -1 157 3.8043262902647257e-03</internalNodes>
          <leafValues>
            2.7873691916465759e-01 -3.5417559742927551e-01</leafValues></_></weakClassifiers></_>
    <!-- stage 15 -->
    <_>
      <maxWeakCount>12</maxWeakCount>
      <stageThreshold>-1.1627447605133057e+00</stageThreshold>
      <weakClassifiers>
        <_>
          <internalNodes>
            0 -1 33 3.9895358681678772e-01</internalNodes>
          <leafValues>
            -5.5468750000000000e-01 7.1428573131561279e-01</leafValues></_>
        <_>
          <internalNodes>
            0 -1 36 5.2568323910236359e-02</internalNodes>
          <leafValues>
            -3.6468932032585144e-01 2.1640598773956299e-01</leafValues></_>
        <_>
          <internalNodes>
            0 -1 89 2.3224777542054653e-03</internalNodes>
          <leafValues>
            1.5121340751647949e-01 -5.0422883033752441e-01</leafValues></_>
        <_>
          <internalNodes>
            0 -1 114 -6.0104049742221832e-02</internalNodes>
          <leafValues>
            -8.2028788328170776e-01 1.2496485561132431e-01</leafValues></_>
        <_>
          <internalNodes>
            0 -1 182 -4.2833192856051028e-04</internalNodes>
          <leafValues>
            4.1031581163406372e-01 -1.9499556720256805e-01</leafValues></_>
        <_>
          <internalNodes>
            0 -1 188 2.8087368700653315e-03</internalNodes>
          <leafValues>
            1.5495966374874115e-01 -6.0934317111968994e-01</leafValues></_>
        <_>
          <internalNodes>
            0 -1 110 9.4572186935693026e-04</internalNodes>
          <leafValues>
            -1.5857908129692078e-01 5.7675707340240479e-01</leafValues></_>
        <_>
          <internalNodes>
            0 -1 150 3.6934893578290939e-03</internalNodes>
          <leafValues>
            1.2380328029394150e-01 -7.9191064834594727e-01</leafValues></_>
        <_>
          <internalNodes>
            0 -1 159 2.4600306642241776e-04</internalNodes>
          <leafValues>
            -2.5845238566398621e-01 3.2121816277503967e-01</leafValues></_>
        <_>
          <internalNodes>
            0 -1 145 -3.7977570900693536e-04</internalNodes>
          <leafValues>
            4.4409424066543579e-01 -1.9145950675010681e-01</leafValues></_>
        <_>
          <internalNodes>
            0 -1 4 2.4815697968006134e-01</internalNodes>
          <leafValues>
            -1.4193698763847351e-01 6.1534434556961060e-01</leafValues></_>
        <_>
          <internalNodes>
            0 -1 40 5.1194643601775169e-03</internalNodes>
          <leafValues>
            1.4711441099643707e-01 -6.7225921154022217e-01</leafValues></_></weakClassifiers></_>
    <!-- stage 16 -->
    <_>
      <maxWeakCount>12</maxWeakCount>
      <stageThreshold>-1.0813282728195190e+00</stageThreshold>
      <weakClassifiers>
        <_>
          <internalNodes>
            0 -1 18 -1.2508288025856018e-01</internalNodes>
          <leafValues>
            4.6153846383094788e-01 -5.7200002670288086e-01</leafValues></_>
        <_>
          <internalNodes>
            0 -1 77 1.5890304744243622e-01</internalNodes>
          <leafValues>
            -2.9967796802520752e-01 2.3121187090873718e-01</leafValues></_>
        <_>
          <internalNodes>
            0 -1 26 1.4990423806011677e-03</internalNodes>
          <leafValues>
            -1.4344350993633270e-01 5.0800007581710815e-01</leafValues></_>
        <_>
          <internalNodes>
            0 -1 119 1.3328441977500916e-01</internalNodes>
          <leafValues>
            8.7109848856925964e-02 -9.3159782886505127e-01</leafValues></_>
        <_>
          <internalNodes>
            0 -1 154 3.2458687201142311e-04</internalNodes>
          <leafValues>
            -1.7672483623027802e-01 3.9205071330070496e-01</leafValues></_>
        <_>
          <internalNodes>
            0 -1 111 3.6664516665041447e-04</internalNodes>
          <leafValues>
            -1.8281586468219757e-01 4.0116631984710693e-01</leafValues></_>
        <_>
          <internalNodes>
            0 -1 0 4.4274171814322472e-03</internalNodes>
          <leafValues>
            1.1933252215385437e-01 -6.2608939409255981e-01</leafValues></_>
        <_>
          <internalNodes>
            0 -1 177 1.6715081874281168e-03</internalNodes>
          <leafValues>
            1.9028256833553314e-01 -4.2056593298912048e-01</leafValues></_>
        <_>
          <internalNodes>
            0 -1 97 2.8059596661478281e-04</internalNodes>
          <leafValues>
            -2.3479185998439789e-01 3.3579993247985840e-01</leafValues></_>
        <_>
          <internalNodes>
            0 -1 64 4.8455945216119289e-04</internalNodes>
          <leafValues>
            2.5700321793556213e-01 -3.4085541963577271e-01</leafValues></_>
        <_>
          <internalNodes>
            0 -1 63 -3.5303053446114063e-03</internalNodes>
          <leafValues>
            -5.1539307832717896e-01 1.5759526193141937e-01</leafValues></_>
        <_>
          <internalNodes>
            0 -1 39 2.5436706840991974e-02</internalNodes>
          <leafValues>
            -1.1385703086853027e-01 8.2405263185501099e-01</leafValues></_></weakClassifiers></_>
    <!-- stage 17 -->
    <_>
      <maxWeakCount>9</maxWeakCount>
      <stageThreshold>-7.6719999313354492e-01</stageThreshold>
      <weakClassifiers>
        <_>
          <internalNodes>
            0 -1 58 -5.6402504444122314e-02</internalNodes>
          <leafValues>
            2.1951219439506531e-01 -5.8350515365600586e-01</leafValues></_>
        <_>
          <internalNodes>
            0 -1 12 -2.7087569236755371e-02</internalNodes>
          <leafValues>
            -1. -1.8841975834220648e-03</leafValues></_>
        <_>
          <internalNodes>
            0 -1 79 -5.2090617828071117e-03</internalNodes>
          <leafValues>
            -1. 6.9834873080253601e-02</leafValues></_>
        <_>
          <internalNodes>
            0 -1 66 -4.7892527072690427e-04</internalNodes>
          <leafValues>
            5.7083112001419067e-01 -1.4307722449302673e-01</leafValues></_>
        <_>
          <internalNodes>
            0 -1 138 6.5223604906350374e-04</internalNodes>
          <leafValues>
            -2.5090062618255615e-01 3.1370931863784790e-01</leafValues></_>
        <_>
          <internalNodes>
            0 -1 37 7.7352486550807953e-02</internalNodes>
          <leafValues>
            -1.3027158379554749e-01 6.0112839937210083e-01</leafValues></_>
        <_>
          <internalNodes>
            0 -1 107 5.7472260668873787e-03</internalNodes>
          <leafValues>
            -4.3008896708488464e-01 1.8592321872711182e-01</leafValues></_>
        <_>
          <internalNodes>
            0 -1 22 7.5424876995384693e-03</internalNodes>
          <leafValues>
            6.6470079123973846e-02 -9.1514414548873901e-01</leafValues></_>
        <_>
          <internalNodes>
            0 -1 115 1.8906757235527039e-01</internalNodes>
          <leafValues>
            7.1612894535064697e-02 -1.</leafValues></_></weakClassifiers></_>
    <!-- stage 18 -->
    <_>
      <maxWeakCount>13</maxWeakCount>
      <stageThreshold>-1.1366105079650879e+00</stageThreshold>
      <weakClassifiers>
        <_>
          <internalNodes>
            0 -1 139 7.5029698200523853e-04</internalNodes>
          <leafValues>
            -6.1247217655181885e-01 1.2987012974917889e-02</leafValues></_>
        <_>
          <internalNodes>
            0 -1 51 -1.3739459216594696e-02</internalNodes>
          <leafValues>
            4.4073718786239624e-01 -2.2794567048549652e-01</leafValues></_>
        <_>
          <internalNodes>
            0 -1 48 5.2594125270843506e-01</internalNodes>
          <leafValues>
            8.8700629770755768e-02 -8.3950567245483398e-01</leafValues></_>
        <_>
          <internalNodes>
            0 -1 165 -8.2280123606324196e-03</internalNodes>
          <leafValues>
            -7.8178364038467407e-01 1.1525028944015503e-01</leafValues></_>
        <_>
          <internalNodes>
            0 -1 178 4.8108480405062437e-04</internalNodes>
          <leafValues>
            -2.0589166879653931e-01 3.8388216495513916e-01</leafValues></_>
        <_>
          <internalNodes>
            0 -1 155 -5.1467525772750378e-03</internalNodes>
          <leafValues>
            -7.1156328916549683e-01 1.2962894141674042e-01</leafValues></_>
        <_>
          <internalNodes>
            0 -1 17 -1.3873456045985222e-03</internalNodes>
          <leafValues>
            2.4595101177692413e-01 -2.9290711879730225e-01</leafValues></_>
        <_>
          <internalNodes>
            0 -1 47 -4.8692468553781509e-03</internalNodes>
          <leafValues>
            -8.4511011838912964e-01 9.0451873838901520e-02</leafValues></_>
        <_>
          <internalNodes>
            0 -1 151 6.7756068892776966e-04</internalNodes>
          <leafValues>
            -2.3045323789119720e-01 3.3309912681579590e-01</leafValues></_>
        <_>
          <internalNodes>
            0 -1 28 -4.8248830717056990e-04</internalNodes>
          <leafValues>
            3.4800779819488525e-01 -2.1705345809459686e-01</leafValues></_>
        <_>
          <internalNodes>
            0 -1 81 1.5878230333328247e-03</internalNodes>
          <leafValues>
            -2.7269697189331055e-01 3.1736412644386292e-01</leafValues></_>
        <_>
          <internalNodes>
            0 -1 147 -5.6332424283027649e-03</internalNodes>
          <leafValues>
            -6.1575365066528320e-01 1.1207417398691177e-01</leafValues></_>
        <_>
          <internalNodes>
            0 -1 53 -3.6056423559784889e-03</internalNodes>
          <leafValues>
            4.0623182058334351e-01 -2.0335724949836731e-01</leafValues></_></weakClassifiers></_>
    <!-- stage 19 -->
    <_>
      <maxWeakCount>12</maxWeakCount>
      <stageThreshold>-9.0899890661239624e-01</stageThreshold>
      <weakClassifiers>
        <_>
          <internalNodes>
            0 -1 127 1.8092989921569824e-02</internalNodes>
          <leafValues>
            -5.5772995948791504e-01 7.3333334922790527e-01</leafValues></_>
        <_>
          <internalNodes>
            0 -1 156 3.2799529435578734e-05</internalNodes>
          <leafValues>
            -3.1475338339805603e-01 2.0097540318965912e-01</leafValues></_>
        <_>
          <internalNodes>
            0 -1 187 -1.1389499995857477e-03</internalNodes>
          <leafValues>
            -9.0667849779129028e-01 7.8540317714214325e-02</leafValues></_>
        <_>
          <internalNodes>
            0 -1 80 1.7247617244720459e-02</internalNodes>
          <leafValues>
            -3.6423042416572571e-01 1.8657127022743225e-01</leafValues></_>
        <_>
          <internalNodes>
            0 -1 167 2.5482726050540805e-04</internalNodes>
          <leafValues>
            -2.0011967420578003e-01 3.9103135466575623e-01</leafValues></_>
        <_>
          <internalNodes>
            0 -1 60 -1.6109308926388621e-03</internalNodes>
          <leafValues>
            -4.6431231498718262e-01 1.5893991291522980e-01</leafValues></_>
        <_>
          <internalNodes>
            0 -1 44 -3.2599043333902955e-04</internalNodes>
          <leafValues>
            4.8599365353584290e-01 -1.3627341389656067e-01</leafValues></_>
        <_>
          <internalNodes>
            0 -1 166 6.6429208964109421e-03</internalNodes>
          <leafValues>
            1.0281910002231598e-01 -6.9028955698013306e-01</leafValues></_>
        <_>
          <internalNodes>
            0 -1 186 -2.0874135952908546e-04</internalNodes>
          <leafValues>
            3.1712955236434937e-01 -2.2586391866207123e-01</leafValues></_>
        <_>
          <internalNodes>
            0 -1 161 1.5819664113223553e-03</internalNodes>
          <leafValues>
            9.7648464143276215e-02 -6.9647514820098877e-01</leafValues></_>
        <_>
          <internalNodes>
            0 -1 67 1.1148191057145596e-02</internalNodes>
          <leafValues>
            -2.6803845167160034e-01 2.5958988070487976e-01</leafValues></_>
        <_>
          <internalNodes>
            0 -1 94 -1.0736262425780296e-02</internalNodes>
          <leafValues>
            5.6202304363250732e-01 -1.5539489686489105e-01</leafValues></_></weakClassifiers></_></stages>
  <features>
    <_>
      <rects>
        <_>
          0 0 3 21 -1.</_>
        <_>
          1 0 1 21 3.</_></rects>
      <tilted>0</tilted></_>
    <_>
      <rects>
        <_>
          0 0 4 10 -1.</_>
        <_>
          0 5 4 5 2.</_></rects>
      <tilted>0</tilted></_>
    <_>
      <rects>
        <_>
          0 0 7 6 -1.</_>
        <_>
          0 3 7 3 2.</_></rects>
      <tilted>0</tilted></_>
    <_>
      <rects>
        <_>
          0 0 17 12 -1.</_>
        <_>
          0 6 17 6 2.</_></rects>
      <tilted>0</tilted></_>
    <_>
      <rects>
        <_>
          0 0 22 24 -1.</_>
        <_>
          0 12 22 12 2.</_></rects>
      <tilted>0</tilted></_>
    <_>
      <rects>
        <_>
          0 1 1 14 -1.</_>
        <_>
          0 8 1 7 2.</_></rects>
      <tilted>0</tilted></_>
    <_>
      <rects>
        <_>
          0 1 24 21 -1.</_>
        <_>
          8 1 8 21 3.</_></rects>
      <tilted>0</tilted></_>
    <_>
      <rects>
        <_>
          0 2 1 8 -1.</_>
        <_>
          0 6 1 4 2.</_></rects>
      <tilted>0</tilted></_>
    <_>
      <rects>
        <_>
          0 3 9 12 -1.</_>
        <_>
          3 3 3 12 3.</_></rects>
      <tilted>0</tilted></_>
    <_>
      <rects>
        <_>
          0 4 2 4 -1.</_>
        <_>
          0 6 2 2 2.</_></rects>
      <tilted>0</tilted></_>
    <_>
      <rects>
        <_>
          0 4 4 12 -1.</_>
        <_>
          0 10 4 6 2.</_></rects>
      <tilted>0</tilted></_>
    <_>
      <rects>
        <_>
          0 4 4 16 -1.</_>
        <_>
          0 12 4 8 2.</_></rects>
      <tilted>0</tilted></_>
    <_>
      <rects>
        <_>
          0 4 5 8 -1.</_>
        <_>
          0 8 5 4 2.</_></rects>
      <tilted>0</tilted></_>
    <_>
      <rects>
        <_>
          0 6 1 10 -1.</_>
        <_>
          0 11 1 5 2.</_></rects>
      <tilted>0</tilted></_>
    <_>
      <rects>
        <_>
          0 6 2 16 -1.</_>
        <_>
          0 14 2 8 2.</_></rects>
      <tilted>0</tilted></_>
    <_>
      <rects>
        <_>
          0 6 10 18 -1.</_>
        <_>
          0 6 5 9 2.</_>
        <_>
          5 15 5 9 2.</_></rects>
      <tilted>0</tilted></_>
    <_>
      <rects>
        <_>
          0 6 20 18 -1.</_>
        <_>
          0 12 20 6 3.</_></rects>
      <tilted>0</tilted></_>
    <_>
      <rects>
        <_>
          0 7 3 8 -1.</_>
        <_>
          0 11 3 4 2.</_></rects>
      <tilted>0</tilted></_>
    <_>
      <rects>
        <_>
          0 7 12 8 -1.</_>
        <_>
          4 7 4 8 3.</_></rects>
      <tilted>0</tilted></_>
    <_>
      <rects>
        <_>
          0 8 1 6 -1.</_>
        <_>
          0 10 1 2 3.</_></rects>
      <tilted>0</tilted></_>
    <_>
      <rects>
        <_>
          0 10 1 6 -1.</_>
        <_>
          0 13 1 3 2.</_></rects>
      <tilted>0</tilted></_>
    <_>
      <rects>
        <_>
          0 11 2 9 -1.</_>
        <_>
          0 14 2 3 3.</_></rects>
      <tilted>0</tilted></_>
    <_>
      <rects>
        <_>
          0 11 8 4 -1.</_>
        <_>
          0 13 8 2 2.</_></rects>
      <tilted>0</tilted></_>
    <_>
      <rects>
        <_>
          0 11 10 8 -1.</_>
        <_>
          0 15 10 4 2.</_></rects>
      <tilted>0</tilted></_>
    <_>
      <rects>
        <_>
          0 12 1 9 -1.</_>
        <_>
          0 15 1 3 3.</_></rects>
      <tilted>0</tilted></_>
    <_>
      <rects>
        <_>
          0 13 2 8 -1.</_>
        <_>
          0 17 2 4 2.</_></rects>
      <tilted>0</tilted></_>
    <_>
      <rects>
        <_>
          0 14 2 8 -1.</_>
        <_>
          0 14 1 4 2.</_>
        <_>
          1 18 1 4 2.</_></rects>
      <tilted>0</tilted></_>
    <_>
      <rects>
        <_>
          0 14 2 8 -1.</_>
        <_>
          0 18 2 4 2.</_></rects>
      <tilted>0</tilted></_>
    <_>
      <rects>
        <_>
          0 14 5 3 -1.</_>
        <_>
          0 15 5 1 3.</_></rects>
      <tilted>0</tilted></_>
    <_>
      <rects>
        <_>
          0 15 2 6 -1.</_>
        <_>
          0 18 2 3 2.</_></rects>
      <tilted>0</tilted></_>
    <_>
      <rects>
        <_>
          0 15 6 6 -1.</_>
        <_>
          3 15 3 6 2.</_></rects>
      <tilted>0</tilted></_>
    <_>
      <rects>
        <_>
          0 17 12 6 -1.</_>
        <_>
          6 17 6 6 2.</_></rects>
      <tilted>0</tilted></_>
    <_>
      <rects>
        <_>
          0 19 4 4 -1.</_>
        <_>
          0 19 2 2 2.</_>
        <_>
          2 21 2 2 2.</_></rects>
      <tilted>0</tilted></_>
    <_>
      <rects>
        <_>
          1 2 22 12 -1.</_>
        <_>
          12 2 11 12 2.</_></rects>
      <tilted>0</tilted></_>
    <_>
      <rects>
        <_>
          1 2 14 3 -1.</_>
        <_>
          1 3 14 1 3.</_></rects>
      <tilted>0</tilted></_>
    <_>
      <rects>
        <_>
          1 5 21 13 -1.</_>
        <_>
          8 5 7 13 3.</_></rects>
      <tilted>0</tilted></_>
    <_>
      <rects>
        <_>
          1 5 17 12 -1.</_>
        <_>
          1 9 17 4 3.</_></rects>
      <tilted>0</tilted></_>
    <_>
      <rects>
        <_>
          1 7 12 14 -1.</_>
        <_>
          5 7 4 14 3.</_></rects>
      <tilted>0</tilted></_>
    <_>
      <rects>
        <_>
          1 7 9 12 -1.</_>
        <_>
          1 11 9 4 3.</_></rects>
      <tilted>0</tilted></_>
    <_>
      <rects>
        <_>
          1 8 6 16 -1.</_>
        <_>
          1 8 3 8 2.</_>
        <_>
          4 16 3 8 2.</_></rects>
      <tilted>0</tilted></_>
    <_>
      <rects>
        <_>
          1 11 3 12 -1.</_>
        <_>
          1 17 3 6 2.</_></rects>
      <tilted>0</tilted></_>
    <_>
      <rects>
        <_>
          1 12 2 2 -1.</_>
        <_>
          1 12 1 1 2.</_>
        <_>
          2 13 1 1 2.</_></rects>
      <tilted>0</tilted></_>
    <_>
      <rects>
        <_>
          1 12 1 8 -1.</_>
        <_>
          1 16 1 4 2.</_></rects>
      <tilted>0</tilted></_>
    <_>
      <rects>
        <_>
          1 12 4 12 -1.</_>
        <_>
          3 12 2 12 2.</_></rects>
      <tilted>0</tilted></_>
    <_>
      <rects>
        <_>
          1 21 2 2 -1.</_>
        <_>
          1 21 1 1 2.</_>
        <_>
          2 22 1 1 2.</_></rects>
      <tilted>0</tilted></_>
    <_>
      <rects>
        <_>
          1 22 20 2 -1.</_>
        <_>
          1 23 20 1 2.</_></rects>
      <tilted>0</tilted></_>
    <_>
      <rects>
        <_>
          2 0 6 4 -1.</_>
        <_>
          4 0 2 4 3.</_></rects>
      <tilted>0</tilted></_>
    <_>
      <rects>
        <_>
          2 0 3 4 -1.</_>
        <_>
          2 2 3 2 2.</_></rects>
      <tilted>0</tilted></_>
    <_>
      <rects>
        <_>
          2 0 18 24 -1.</_>
        <_>
          8 0 6 24 3.</_></rects>
      <tilted>0</tilted></_>
    <_>
      <rects>
        <_>
          2 0 21 22 -1.</_>
        <_>
          9 0 7 22 3.</_></rects>
      <tilted>0</tilted></_>
    <_>
      <rects>
        <_>
          2 1 2 2 -1.</_>
        <_>
          2 1 1 1 2.</_>
        <_>
          3 2 1 1 2.</_></rects>
      <tilted>0</tilted></_>
    <_>
      <rects>
        <_>
          2 1 4 18 -1.</_>
        <_>
          2 7 4 6 3.</_></rects>
      <tilted>0</tilted></_>
    <_>
      <rects>
        <_>
          2 1 21 20 -1.</_>
        <_>
          9 1 7 20 3.</_></rects>
      <tilted>0</tilted></_>
    <_>
      <rects>
        <_>
          2 2 16 4 -1.</_>
        <_>
          2 2 8 2 2.</_>
        <_>
          10 4 8 2 2.</_></rects>
      <tilted>0</tilted></_>
    <_>
      <rects>
        <_>
          2 3 3 8 -1.</_>
        <_>
          3 3 1 8 3.</_></rects>
      <tilted>0</tilted></_>
    <_>
      <rects>
        <_>
          2 3 10 1 -1.</_>
        <_>
          7 3 5 1 2.</_></rects>
      <tilted>0</tilted></_>
    <_>
      <rects>
        <_>
          2 6 21 11 -1.</_>
        <_>
          9 6 7 11 3.</_></rects>
      <tilted>0</tilted></_>
    <_>
      <rects>
        <_>
          2 8 21 10 -1.</_>
        <_>
          9 8 7 10 3.</_></rects>
      <tilted>0</tilted></_>
    <_>
      <rects>
        <_>
          2 10 8 10 -1.</_>
        <_>
          2 10 4 5 2.</_>
        <_>
          6 15 4 5 2.</_></rects>
      <tilted>0</tilted></_>
    <_>
      <rects>
        <_>
          2 11 1 8 -1.</_>
        <_>
          2 15 1 4 2.</_></rects>
      <tilted>0</tilted></_>
    <_>
      <rects>
        <_>
          2 18 4 4 -1.</_>
        <_>
          4 18 2 4 2.</_></rects>
      <tilted>0</tilted></_>
    <_>
      <rects>
        <_>
          2 18 15 1 -1.</_>
        <_>
          7 18 5 1 3.</_></rects>
      <tilted>0</tilted></_>
    <_>
      <rects>
        <_>
          2 19 2 2 -1.</_>
        <_>
          2 19 1 1 2.</_>
        <_>
          3 20 1 1 2.</_></rects>
      <tilted>0</tilted></_>
    <_>
      <rects>
        <_>
          2 20 10 3 -1.</_>
        <_>
          7 20 5 3 2.</_></rects>
      <tilted>0</tilted></_>
    <_>
      <rects>
        <_>
          2 22 8 2 -1.</_>
        <_>
          6 22 4 2 2.</_></rects>
      <tilted>0</tilted></_>
    <_>
      <rects>
        <_>
          2 22 10 1 -1.</_>
        <_>
          7 22 5 1 2.</_></rects>
      <tilted>0</tilted></_>
    <_>
      <rects>
        <_>
          3 3 2 2 -1.</_>
        <_>
          3 3 1 1 2.</_>
        <_>
          4 4 1 1 2.</_></rects>
      <tilted>0</tilted></_>
    <_>
      <rects>
        <_>
          3 4 8 10 -1.</_>
        <_>
          3 4 4 5 2.</_>
        <_>
          7 9 4 5 2.</_></rects>
      <tilted>0</tilted></_>
    <_>
      <rects>
        <_>
          3 6 12 12 -1.</_>
        <_>
          7 6 4 12 3.</_></rects>
      <tilted>0</tilted></_>
    <_>
      <rects>
        <_>
          3 8 2 2 -1.</_>
        <_>
          3 8 1 1 2.</_>
        <_>
          4 9 1 1 2.</_></rects>
      <tilted>0</tilted></_>
    <_>
      <rects>
        <_>
          3 9 1 3 -1.</_>
        <_>
          3 10 1 1 3.</_></rects>
      <tilted>0</tilted></_>
    <_>
      <rects>
        <_>
          3 11 4 8 -1.</_>
        <_>
          3 11 2 4 2.</_>
        <_>
          5 15 2 4 2.</_></rects>
      <tilted>0</tilted></_>
    <_>
      <rects>
        <_>
          3 12 3 12 -1.</_>
        <_>
          3 16 3 4 3.</_></rects>
      <tilted>0</tilted></_>
    <_>
      <rects>
        <_>
          3 13 18 8 -1.</_>
        <_>
          3 13 9 4 2.</_>
        <_>
          12 17 9 4 2.</_></rects>
      <tilted>0</tilted></_>
    <_>
      <rects>
        <_>
          3 20 6 4 -1.</_>
        <_>
          5 20 2 4 3.</_></rects>
      <tilted>0</tilted></_>
    <_>
      <rects>
        <_>
          3 22 12 2 -1.</_>
        <_>
          9 22 6 2 2.</_></rects>
      <tilted>0</tilted></_>
    <_>
      <rects>
        <_>
          3 23 6 1 -1.</_>
        <_>
          6 23 3 1 2.</_></rects>
      <tilted>0</tilted></_>
    <_>
      <rects>
        <_>
          4 0 20 16 -1.</_>
        <_>
          4 8 20 8 2.</_></rects>
      <tilted>0</tilted></_>
    <_>
      <rects>
        <_>
          4 2 18 22 -1.</_>
        <_>
          10 2 6 22 3.</_></rects>
      <tilted>0</tilted></_>
    <_>
      <rects>
        <_>
          4 3 12 2 -1.</_>
        <_>
          4 4 12 1 2.</_></rects>
      <tilted>0</tilted></_>
    <_>
      <rects>
        <_>
          4 3 17 8 -1.</_>
        <_>
          4 7 17 4 2.</_></rects>
      <tilted>0</tilted></_>
    <_>
      <rects>
        <_>
          4 21 12 3 -1.</_>
        <_>
          8 21 4 3 3.</_></rects>
      <tilted>0</tilted></_>
    <_>
      <rects>
        <_>
          5 0 14 12 -1.</_>
        <_>
          5 6 14 6 2.</_></rects>
      <tilted>0</tilted></_>
    <_>
      <rects>
        <_>
          5 2 2 2 -1.</_>
        <_>
          5 2 1 1 2.</_>
        <_>
          6 3 1 1 2.</_></rects>
      <tilted>0</tilted></_>
    <_>
      <rects>
        <_>
          5 6 2 2 -1.</_>
        <_>
          5 6 1 1 2.</_>
        <_>
          6 7 1 1 2.</_></rects>
      <tilted>0</tilted></_>
    <_>
      <rects>
        <_>
          5 7 9 16 -1.</_>
        <_>
          5 15 9 8 2.</_></rects>
      <tilted>0</tilted></_>
    <_>
      <rects>
        <_>
          5 23 16 1 -1.</_>
        <_>
          13 23 8 1 2.</_></rects>
      <tilted>0</tilted></_>
    <_>
      <rects>
        <_>
          6 0 1 3 -1.</_>
        <_>
          6 1 1 1 3.</_></rects>
      <tilted>0</tilted></_>
    <_>
      <rects>
        <_>
          6 0 11 24 -1.</_>
        <_>
          6 8 11 8 3.</_></rects>
      <tilted>0</tilted></_>
    <_>
      <rects>
        <_>
          6 5 1 12 -1.</_>
        <_>
          6 11 1 6 2.</_></rects>
      <tilted>0</tilted></_>
    <_>
      <rects>
        <_>
          6 11 18 7 -1.</_>
        <_>
          12 11 6 7 3.</_></rects>
      <tilted>0</tilted></_>
    <_>
      <rects>
        <_>
          6 17 4 2 -1.</_>
        <_>
          6 17 2 1 2.</_>
        <_>
          8 18 2 1 2.</_></rects>
      <tilted>0</tilted></_>
    <_>
      <rects>
        <_>
          7 0 1 24 -1.</_>
        <_>
          7 8 1 8 3.</_></rects>
      <tilted>0</tilted></_>
    <_>
      <rects>
        <_>
          7 3 16 6 -1.</_>
        <_>
          7 5 16 2 3.</_></rects>
      <tilted>0</tilted></_>
    <_>
      <rects>
        <_>
          7 4 8 18 -1.</_>
        <_>
          7 10 8 6 3.</_></rects>
      <tilted>0</tilted></_>
    <_>
      <rects>
        <_>
          7 6 9 18 -1.</_>
        <_>
          7 15 9 9 2.</_></rects>
      <tilted>0</tilted></_>
    <_>
      <rects>
        <_>
          7 10 2 2 -1.</_>
        <_>
          7 10 1 1 2.</_>
        <_>
          8 11 1 1 2.</_></rects>
      <tilted>0</tilted></_>
    <_>
      <rects>
        <_>
          7 12 1 3 -1.</_>
        <_>
          7 13 1 1 3.</_></rects>
      <tilted>0</tilted></_>
    <_>
      <rects>
        <_>
          7 14 3 3 -1.</_>
        <_>
          7 15 3 1 3.</_></rects>
      <tilted>0</tilted></_>
    <_>
      <rects>
        <_>
          7 17 2 3 -1.</_>
        <_>
          8 17 1 3 2.</_></rects>
      <tilted>0</tilted></_>
    <_>
      <rects>
        <_>
          7 19 16 5 -1.</_>
        <_>
          15 19 8 5 2.</_></rects>
      <tilted>0</tilted></_>
    <_>
      <rects>
        <_>
          7 22 16 2 -1.</_>
        <_>
          15 22 8 2 2.</_></rects>
      <tilted>0</tilted></_>
    <_>
      <rects>
        <_>
          8 0 8 24 -1.</_>
        <_>
          8 8 8 8 3.</_></rects>
      <tilted>0</tilted></_>
    <_>
      <rects>
        <_>
          8 0 9 24 -1.</_>
        <_>
          8 8 9 8 3.</_></rects>
      <tilted>0</tilted></_>
    <_>
      <rects>
        <_>
          8 2 15 21 -1.</_>
        <_>
          8 9 15 7 3.</_></rects>
      <tilted>0</tilted></_>
    <_>
      <rects>
        <_>
          8 5 6 2 -1.</_>
        <_>
          8 5 3 1 2.</_>
        <_>
          11 6 3 1 2.</_></rects>
      <tilted>0</tilted></_>
    <_>
      <rects>
        <_>
          8 6 10 6 -1.</_>
        <_>
          13 6 5 6 2.</_></rects>
      <tilted>0</tilted></_>
    <_>
      <rects>
        <_>
          8 8 12 6 -1.</_>
        <_>
          12 8 4 6 3.</_></rects>
      <tilted>0</tilted></_>
    <_>
      <rects>
        <_>
          8 10 2 4 -1.</_>
        <_>
          8 10 1 2 2.</_>
        <_>
          9 12 1 2 2.</_></rects>
      <tilted>0</tilted></_>
    <_>
      <rects>
        <_>
          8 14 3 1 -1.</_>
        <_>
          9 14 1 1 3.</_></rects>
      <tilted>0</tilted></_>
    <_>
      <rects>
        <_>
          8 14 2 2 -1.</_>
        <_>
          8 14 1 1 2.</_>
        <_>
          9 15 1 1 2.</_></rects>
      <tilted>0</tilted></_>
    <_>
      <rects>
        <_>
          8 16 2 2 -1.</_>
        <_>
          8 16 1 1 2.</_>
        <_>
          9 17 1 1 2.</_></rects>
      <tilted>0</tilted></_>
    <_>
      <rects>
        <_>
          8 22 12 2 -1.</_>
        <_>
          12 22 4 2 3.</_></rects>
      <tilted>0</tilted></_>
    <_>
      <rects>
        <_>
          8 23 14 1 -1.</_>
        <_>
          15 23 7 1 2.</_></rects>
      <tilted>0</tilted></_>
    <_>
      <rects>
        <_>
          9 1 12 8 -1.</_>
        <_>
          9 1 6 4 2.</_>
        <_>
          15 5 6 4 2.</_></rects>
      <tilted>0</tilted></_>
    <_>
      <rects>
        <_>
          9 3 12 14 -1.</_>
        <_>
          13 3 4 14 3.</_></rects>
      <tilted>0</tilted></_>
    <_>
      <rects>
        <_>
          9 5 2 2 -1.</_>
        <_>
          9 5 1 1 2.</_>
        <_>
          10 6 1 1 2.</_></rects>
      <tilted>0</tilted></_>
    <_>
      <rects>
        <_>
          10 0 2 12 -1.</_>
        <_>
          10 0 1 6 2.</_>
        <_>
          11 6 1 6 2.</_></rects>
      <tilted>0</tilted></_>
    <_>
      <rects>
        <_>
          10 0 6 24 -1.</_>
        <_>
          10 8 6 8 3.</_></rects>
      <tilted>0</tilted></_>
    <_>
      <rects>
        <_>
          10 6 14 12 -1.</_>
        <_>
          10 10 14 4 3.</_></rects>
      <tilted>0</tilted></_>
    <_>
      <rects>
        <_>
          10 9 12 5 -1.</_>
        <_>
          16 9 6 5 2.</_></rects>
      <tilted>0</tilted></_>
    <_>
      <rects>
        <_>
          10 10 3 4 -1.</_>
        <_>
          11 10 1 4 3.</_></rects>
      <tilted>0</tilted></_>
    <_>
      <rects>
        <_>
          10 10 3 14 -1.</_>
        <_>
          10 17 3 7 2.</_></rects>
      <tilted>0</tilted></_>
    <_>
      <rects>
        <_>
          10 13 14 3 -1.</_>
        <_>
          10 14 14 1 3.</_></rects>
      <tilted>0</tilted></_>
    <_>
      <rects>
        <_>
          10 14 3 10 -1.</_>
        <_>
          10 19 3 5 2.</_></rects>
      <tilted>0</tilted></_>
    <_>
      <rects>
        <_>
          10 22 9 2 -1.</_>
        <_>
          13 22 3 2 3.</_></rects>
      <tilted>0</tilted></_>
    <_>
      <rects>
        <_>
          10 23 4 1 -1.</_>
        <_>
          12 23 2 1 2.</_></rects>
      <tilted>0</tilted></_>
    <_>
      <rects>
        <_>
          11 4 4 6 -1.</_>
        <_>
          11 4 2 3 2.</_>
        <_>
          13 7 2 3 2.</_></rects>
      <tilted>0</tilted></_>
    <_>
      <rects>
        <_>
          11 5 10 6 -1.</_>
        <_>
          11 8 10 3 2.</_></rects>
      <tilted>0</tilted></_>
    <_>
      <rects>
        <_>
          11 10 8 2 -1.</_>
        <_>
          11 11 8 1 2.</_></rects>
      <tilted>0</tilted></_>
    <_>
      <rects>
        <_>
          12 0 1 12 -1.</_>
        <_>
          12 4 1 4 3.</_></rects>
      <tilted>0</tilted></_>
    <_>
      <rects>
        <_>
          12 3 2 2 -1.</_>
        <_>
          12 3 1 1 2.</_>
        <_>
          13 4 1 1 2.</_></rects>
      <tilted>0</tilted></_>
    <_>
      <rects>
        <_>
          12 6 12 4 -1.</_>
        <_>
          12 6 6 2 2.</_>
        <_>
          18 8 6 2 2.</_></rects>
      <tilted>0</tilted></_>
    <_>
      <rects>
        <_>
          12 7 11 9 -1.</_>
        <_>
          12 10 11 3 3.</_></rects>
      <tilted>0</tilted></_>
    <_>
      <rects>
        <_>
          12 15 2 4 -1.</_>
        <_>
          12 15 1 2 2.</_>
        <_>
          13 17 1 2 2.</_></rects>
      <tilted>0</tilted></_>
    <_>
      <rects>
        <_>
          13 0 7 2 -1.</_>
        <_>
          13 1 7 1 2.</_></rects>
      <tilted>0</tilted></_>
    <_>
      <rects>
        <_>
          13 7 6 14 -1.</_>
        <_>
          15 7 2 14 3.</_></rects>
      <tilted>0</tilted></_>
    <_>
      <rects>
        <_>
          14 1 1 6 -1.</_>
        <_>
          14 3 1 2 3.</_></rects>
      <tilted>0</tilted></_>
    <_>
      <rects>
        <_>
          14 2 3 5 -1.</_>
        <_>
          15 2 1 5 3.</_></rects>
      <tilted>0</tilted></_>
    <_>
      <rects>
        <_>
          14 4 2 2 -1.</_>
        <_>
          14 4 1 1 2.</_>
        <_>
          15 5 1 1 2.</_></rects>
      <tilted>0</tilted></_>
    <_>
      <rects>
        <_>
          14 11 1 2 -1.</_>
        <_>
          14 12 1 1 2.</_></rects>
      <tilted>0</tilted></_>
    <_>
      <rects>
        <_>
          14 16 8 4 -1.</_>
        <_>
          18 16 4 4 2.</_></rects>
      <tilted>0</tilted></_>
    <_>
      <rects>
        <_>
          15 0 4 6 -1.</_>
        <_>
          15 0 2 3 2.</_>
        <_>
          17 3 2 3 2.</_></rects>
      <tilted>0</tilted></_>
    <_>
      <rects>
        <_>
          15 6 5 18 -1.</_>
        <_>
          15 15 5 9 2.</_></rects>
      <tilted>0</tilted></_>
    <_>
      <rects>
        <_>
          15 9 1 2 -1.</_>
        <_>
          15 10 1 1 2.</_></rects>
      <tilted>0</tilted></_>
    <_>
      <rects>
        <_>
          15 15 2 2 -1.</_>
        <_>
          15 15 1 1 2.</_>
        <_>
          16 16 1 1 2.</_></rects>
      <tilted>0</tilted></_>
    <_>
      <rects>
        <_>
          15 19 3 2 -1.</_>
        <_>
          16 19 1 2 3.</_></rects>
      <tilted>0</tilted></_>
    <_>
      <rects>
        <_>
          16 1 3 6 -1.</_>
        <_>
          16 4 3 3 2.</_></rects>
      <tilted>0</tilted></_>
    <_>
      <rects>
        <_>
          16 19 8 2 -1.</_>
        <_>
          20 19 4 2 2.</_></rects>
      <tilted>0</tilted></_>
    <_>
      <rects>
        <_>
          17 0 2 2 -1.</_>
        <_>
          17 0 1 1 2.</_>
        <_>
          18 1 1 1 2.</_></rects>
      <tilted>0</tilted></_>
    <_>
      <rects>
        <_>
          17 0 4 2 -1.</_>
        <_>
          19 0 2 2 2.</_></rects>
      <tilted>0</tilted></_>
    <_>
      <rects>
        <_>
          17 3 2 4 -1.</_>
        <_>
          17 3 1 2 2.</_>
        <_>
          18 5 1 2 2.</_></rects>
      <tilted>0</tilted></_>
    <_>
      <rects>
        <_>
          17 5 2 4 -1.</_>
        <_>
          17 5 1 2 2.</_>
        <_>
          18 7 1 2 2.</_></rects>
      <tilted>0</tilted></_>
    <_>
      <rects>
        <_>
          17 5 2 3 -1.</_>
        <_>
          18 5 1 3 2.</_></rects>
      <tilted>0</tilted></_>
    <_>
      <rects>
        <_>
          17 7 6 1 -1.</_>
        <_>
          20 7 3 1 2.</_></rects>
      <tilted>0</tilted></_>
    <_>
      <rects>
        <_>
          17 15 6 6 -1.</_>
        <_>
          17 15 3 3 2.</_>
        <_>
          20 18 3 3 2.</_></rects>
      <tilted>0</tilted></_>
    <_>
      <rects>
        <_>
          18 0 2 1 -1.</_>
        <_>
          19 0 1 1 2.</_></rects>
      <tilted>0</tilted></_>
    <_>
      <rects>
        <_>
          18 3 5 18 -1.</_>
        <_>
          18 12 5 9 2.</_></rects>
      <tilted>0</tilted></_>
    <_>
      <rects>
        <_>
          18 18 6 3 -1.</_>
        <_>
          21 18 3 3 2.</_></rects>
      <tilted>0</tilted></_>
    <_>
      <rects>
        <_>
          18 20 1 3 -1.</_>
        <_>
          18 21 1 1 3.</_></rects>
      <tilted>0</tilted></_>
    <_>
      <rects>
        <_>
          18 20 2 2 -1.</_>
        <_>
          18 20 1 1 2.</_>
        <_>
          19 21 1 1 2.</_></rects>
      <tilted>0</tilted></_>
    <_>
      <rects>
        <_>
          19 1 2 4 -1.</_>
        <_>
          20 1 1 4 2.</_></rects>
      <tilted>0</tilted></_>
    <_>
      <rects>
        <_>
          19 1 4 3 -1.</_>
        <_>
          19 2 4 1 3.</_></rects>
      <tilted>0</tilted></_>
    <_>
      <rects>
        <_>
          19 2 4 9 -1.</_>
        <_>
          21 2 2 9 2.</_></rects>
      <tilted>0</tilted></_>
    <_>
      <rects>
        <_>
          19 8 3 10 -1.</_>
        <_>
          19 13 3 5 2.</_></rects>
      <tilted>0</tilted></_>
    <_>
      <rects>
        <_>
          19 10 5 6 -1.</_>
        <_>
          19 12 5 2 3.</_></rects>
      <tilted>0</tilted></_>
    <_>
      <rects>
        <_>
          19 15 5 6 -1.</_>
        <_>
          19 18 5 3 2.</_></rects>
      <tilted>0</tilted></_>
    <_>
      <rects>
        <_>
          19 16 2 2 -1.</_>
        <_>
          19 16 1 1 2.</_>
        <_>
          20 17 1 1 2.</_></rects>
      <tilted>0</tilted></_>
    <_>
      <rects>
        <_>
          20 0 4 12 -1.</_>
        <_>
          20 6 4 6 2.</_></rects>
      <tilted>0</tilted></_>
    <_>
      <rects>
        <_>
          20 0 4 14 -1.</_>
        <_>
          20 7 4 7 2.</_></rects>
      <tilted>0</tilted></_>
    <_>
      <rects>
        <_>
          20 1 3 20 -1.</_>
        <_>
          20 11 3 10 2.</_></rects>
      <tilted>0</tilted></_>
    <_>
      <rects>
        <_>
          20 3 4 8 -1.</_>
        <_>
          20 7 4 4 2.</_></rects>
      <tilted>0</tilted></_>
    <_>
      <rects>
        <_>
          20 5 4 15 -1.</_>
        <_>
          20 10 4 5 3.</_></rects>
      <tilted>0</tilted></_>
    <_>
      <rects>
        <_>
          20 7 3 1 -1.</_>
        <_>
          21 7 1 1 3.</_></rects>
      <tilted>0</tilted></_>
    <_>
      <rects>
        <_>
          20 9 3 12 -1.</_>
        <_>
          20 15 3 6 2.</_></rects>
      <tilted>0</tilted></_>
    <_>
      <rects>
        <_>
          20 11 2 2 -1.</_>
        <_>
          20 11 1 1 2.</_>
        <_>
          21 12 1 1 2.</_></rects>
      <tilted>0</tilted></_>
    <_>
      <rects>
        <_>
          20 14 2 4 -1.</_>
        <_>
          20 14 1 2 2.</_>
        <_>
          21 16 1 2 2.</_></rects>
      <tilted>0</tilted></_>
    <_>
      <rects>
        <_>
          22 0 2 10 -1.</_>
        <_>
          23 0 1 10 2.</_></rects>
      <tilted>0</tilted></_>
    <_>
      <rects>
        <_>
          22 1 1 3 -1.</_>
        <_>
          22 2 1 1 3.</_></rects>
      <tilted>0</tilted></_>
    <_>
      <rects>
        <_>
          22 2 2 4 -1.</_>
        <_>
          22 2 1 2 2.</_>
        <_>
          23 4 1 2 2.</_></rects>
      <tilted>0</tilted></_>
    <_>
      <rects>
        <_>
          22 2 2 4 -1.</_>
        <_>
          23 2 1 4 2.</_></rects>
      <tilted>0</tilted></_>
    <_>
      <rects>
        <_>
          22 2 1 8 -1.</_>
        <_>
          22 6 1 4 2.</_></rects>
      <tilted>0</tilted></_>
    <_>
      <rects>
        <_>
          22 10 2 2 -1.</_>
        <_>
          22 10 1 1 2.</_>
        <_>
          23 11 1 1 2.</_></rects>
      <tilted>0</tilted></_>
    <_>
      <rects>
        <_>
          22 10 1 12 -1.</_>
        <_>
          22 16 1 6 2.</_></rects>
      <tilted>0</tilted></_>
    <_>
      <rects>
        <_>
          22 14 2 8 -1.</_>
        <_>
          23 14 1 8 2.</_></rects>
      <tilted>0</tilted></_>
    <_>
      <rects>
        <_>
          22 16 2 7 -1.</_>
        <_>
          23 16 1 7 2.</_></rects>
      <tilted>0</tilted></_>
    <_>
      <rects>
        <_>
          22 17 1 3 -1.</_>
        <_>
          22 18 1 1 3.</_></rects>
      <tilted>0</tilted></_>
    <_>
      <rects>
        <_>
          22 22 2 1 -1.</_>
        <_>
          23 22 1 1 2.</_></rects>
      <tilted>0</tilted></_>
    <_>
      <rects>
        <_>
          23 0 1 8 -1.</_>
        <_>
          23 4 1 4 2.</_></rects>
      <tilted>0</tilted></_>
    <_>
      <rects>
        <_>
          23 0 1 20 -1.</_>
        <_>
          23 10 1 10 2.</_></rects>
      <tilted>0</tilted></_>
    <_>
      <rects>
        <_>
          23 1 1 21 -1.</_>
        <_>
          23 8 1 7 3.</_></rects>
      <tilted>0</tilted></_>
    <_>
      <rects>
        <_>
          23 2 1 12 -1.</_>
        <_>
          23 6 1 4 3.</_></rects>
      <tilted>0</tilted></_></features></cascade>
</opencv_storage>
