<?xml version="1.0"?>
<opencv_storage>
<cascade>
  <stageType>BOOST</stageType>
  <featureType>HAAR</featureType>
  <height>24</height>
  <width>24</width>
  <stageParams>
    <boostType>GAB</boostType>
    <minHitRate>9.9500000476837158e-01</minHitRate>
    <maxFalseAlarm>5.0000000000000000e-01</maxFalseAlarm>
    <weightTrimRate>9.4999999999999996e-01</weightTrimRate>
    <maxDepth>1</maxDepth>
    <maxWeakCount>100</maxWeakCount></stageParams>
  <featureParams>
    <maxCatCount>0</maxCatCount>
    <featSize>1</featSize>
    <mode>BASIC</mode></featureParams>
  <stageNum>20</stageNum>
  <stages>
    <!-- stage 0 -->
    <_>
      <maxWeakCount>4</maxWeakCount>
      <stageThreshold>-1.8524126708507538e-01</stageThreshold>
      <weakClassifiers>
        <_>
          <internalNodes>
            0 -1 57 1.5931361913681030e-01</internalNodes>
          <leafValues>
            -4.3396225571632385e-01 8.9915966987609863e-01</leafValues></_>
        <_>
          <internalNodes>
            0 -1 38 1.7108452320098877e-01</internalNodes>
          <leafValues>
            -4.9755051732063293e-01 7.9171788692474365e-01</leafValues></_>
        <_>
          <internalNodes>
            0 -1 23 7.4768986087292433e-04</internalNodes>
          <leafValues>
            4.0019774436950684e-01 -8.5310655832290649e-01</leafValues></_>
        <_>
          <internalNodes>
            0 -1 43 -4.4406671077013016e-03</internalNodes>
          <leafValues>
            -8.1251418590545654e-01 3.4607377648353577e-01</leafValues></_></weakClassifiers></_>
    <!-- stage 1 -->
    <_>
      <maxWeakCount>6</maxWeakCount>
      <stageThreshold>-6.7808032035827637e-01</stageThreshold>
      <weakClassifiers>
        <_>
          <internalNodes>
            0 -1 7 1.5353637933731079e-01</internalNodes>
          <leafValues>
            -4.7297295928001404e-01 8.3076924085617065e-01</leafValues></_>
        <_>
          <internalNodes>
            0 -1 0 2.8117397427558899e-01</internalNodes>
          <leafValues>
            -3.2208263874053955e-01 9.1269415616989136e-01</leafValues></_>
        <_>
          <internalNodes>
            0 -1 27 -2.0041111856698990e-03</internalNodes>
          <leafValues>
            -9.3488121032714844e-01 3.8931688666343689e-01</leafValues></_>
        <_>
          <internalNodes>
            0 -1 24 -1.4401712687686086e-03</internalNodes>
          <leafValues>
            -7.9594802856445313e-01 2.8244727849960327e-01</leafValues></_>
        <_>
          <internalNodes>
            0 -1 61 -1.8034817185252905e-03</internalNodes>
          <leafValues>
            -7.3745000362396240e-01 3.0834484100341797e-01</leafValues></_>
        <_>
          <internalNodes>
            0 -1 4 -1.2075428385287523e-03</internalNodes>
          <leafValues>
            -8.6313372850418091e-01 2.5379577279090881e-01</leafValues></_></weakClassifiers></_>
    <!-- stage 2 -->
    <_>
      <maxWeakCount>4</maxWeakCount>
      <stageThreshold>-2.8116211295127869e-01</stageThreshold>
      <weakClassifiers>
        <_>
          <internalNodes>
            0 -1 51 -7.6521873474121094e-02</internalNodes>
          <leafValues>
            6.9736844301223755e-01 -5.3968256711959839e-01</leafValues></_>
        <_>
          <internalNodes>
            0 -1 8 2.1411076188087463e-01</internalNodes>
          <leafValues>
            -4.5602855086326599e-01 6.9192153215408325e-01</leafValues></_>
        <_>
          <internalNodes>
            0 -1 2 3.5352942068129778e-03</internalNodes>
          <leafValues>
            4.0281793475151062e-01 -7.4318671226501465e-01</leafValues></_>
        <_>
          <internalNodes>
            0 -1 10 6.0464339330792427e-03</internalNodes>
          <leafValues>
            3.1173104047775269e-01 -8.7410563230514526e-01</leafValues></_></weakClassifiers></_>
    <!-- stage 3 -->
    <_>
      <maxWeakCount>4</maxWeakCount>
      <stageThreshold>-2.5142854452133179e-01</stageThreshold>
      <weakClassifiers>
        <_>
          <internalNodes>
            0 -1 41 2.2045633196830750e-01</internalNodes>
          <leafValues>
            -3.9189189672470093e-01 7.3846155405044556e-01</leafValues></_>
        <_>
          <internalNodes>
            0 -1 18 -2.1507097408175468e-03</internalNodes>
          <leafValues>
            -8.6002534627914429e-01 3.1751358509063721e-01</leafValues></_>
        <_>
          <internalNodes>
            0 -1 45 3.0769205093383789e-01</internalNodes>
          <leafValues>
            -3.8360431790351868e-01 6.5349179506301880e-01</leafValues></_>
        <_>
          <internalNodes>
            0 -1 26 1.7613979056477547e-02</internalNodes>
          <leafValues>
            3.3008393645286560e-01 -8.3054196834564209e-01</leafValues></_></weakClassifiers></_>
    <!-- stage 4 -->
    <_>
      <maxWeakCount>6</maxWeakCount>
      <stageThreshold>-7.3529791831970215e-01</stageThreshold>
      <weakClassifiers>
        <_>
          <internalNodes>
            0 -1 87 4.2266193777322769e-02</internalNodes>
          <leafValues>
            -4.7457626461982727e-01 5.8749997615814209e-01</leafValues></_>
        <_>
          <internalNodes>
            0 -1 73 -1.8444067239761353e-01</internalNodes>
          <leafValues>
            7.1887993812561035e-01 -3.8667657971382141e-01</leafValues></_>
        <_>
          <internalNodes>
            0 -1 20 -7.7153993770480156e-03</internalNodes>
          <leafValues>
            -8.4344393014907837e-01 3.0378320813179016e-01</leafValues></_>
        <_>
          <internalNodes>
            0 -1 19 1.7430959269404411e-03</internalNodes>
          <leafValues>
            3.8933172821998596e-01 -6.1768019199371338e-01</leafValues></_>
        <_>
          <internalNodes>
            0 -1 42 3.5839448682963848e-03</internalNodes>
          <leafValues>
            3.3080238103866577e-01 -7.5184398889541626e-01</leafValues></_>
        <_>
          <internalNodes>
            0 -1 126 -1.6014222055673599e-02</internalNodes>
          <leafValues>
            -8.7695449590682983e-01 1.8468400835990906e-01</leafValues></_></weakClassifiers></_>
    <!-- stage 5 -->
    <_>
      <maxWeakCount>5</maxWeakCount>
      <stageThreshold>-3.9668276906013489e-01</stageThreshold>
      <weakClassifiers>
        <_>
          <internalNodes>
            0 -1 88 6.6816438920795918e-03</internalNodes>
          <leafValues>
            4.1346153616905212e-01 -6.8571430444717407e-01</leafValues></_>
        <_>
          <internalNodes>
            0 -1 60 -6.0709245502948761e-02</internalNodes>
          <leafValues>
            4.6492576599121094e-01 -5.8801513910293579e-01</leafValues></_>
        <_>
          <internalNodes>
            0 -1 106 1.9012599950656295e-03</internalNodes>
          <leafValues>
            3.3354386687278748e-01 -6.7370301485061646e-01</leafValues></_>
        <_>
          <internalNodes>
            0 -1 21 3.6815893836319447e-03</internalNodes>
          <leafValues>
            2.5128880143165588e-01 -7.2284853458404541e-01</leafValues></_>
        <_>
          <internalNodes>
            0 -1 63 -7.8411689028143883e-03</internalNodes>
          <leafValues>
            -7.8039336204528809e-01 2.9221400618553162e-01</leafValues></_></weakClassifiers></_>
    <!-- stage 6 -->
    <_>
      <maxWeakCount>6</maxWeakCount>
      <stageThreshold>-3.3866184949874878e-01</stageThreshold>
      <weakClassifiers>
        <_>
          <internalNodes>
            0 -1 64 -2.1117788553237915e-01</internalNodes>
          <leafValues>
            6.9811320304870605e-01 -2.0930232107639313e-01</leafValues></_>
        <_>
          <internalNodes>
            0 -1 44 3.3318819478154182e-03</internalNodes>
          <leafValues>
            4.1412007808685303e-01 -5.7741302251815796e-01</leafValues></_>
        <_>
          <internalNodes>
            0 -1 77 2.9902186989784241e-01</internalNodes>
          <leafValues>
            -3.2328438758850098e-01 7.1605050563812256e-01</leafValues></_>
        <_>
          <internalNodes>
            0 -1 13 -3.2817400060594082e-03</internalNodes>
          <leafValues>
            -6.9476544857025146e-01 3.1027510762214661e-01</leafValues></_>
        <_>
          <internalNodes>
            0 -1 34 -1.7217732965946198e-03</internalNodes>
          <leafValues>
            -6.4724433422088623e-01 3.1666621565818787e-01</leafValues></_>
        <_>
          <internalNodes>
            0 -1 127 6.2745520845055580e-03</internalNodes>
          <leafValues>
            2.2240389883518219e-01 -7.4951153993606567e-01</leafValues></_></weakClassifiers></_>
    <!-- stage 7 -->
    <_>
      <maxWeakCount>7</maxWeakCount>
      <stageThreshold>-7.3559772968292236e-01</stageThreshold>
      <weakClassifiers>
        <_>
          <internalNodes>
            0 -1 115 6.9793555885553360e-03</internalNodes>
          <leafValues>
            3.4821429848670959e-01 -7.4074071645736694e-01</leafValues></_>
        <_>
          <internalNodes>
            0 -1 135 5.6594023481011391e-03</internalNodes>
          <leafValues>
            2.6798036694526672e-01 -6.1350882053375244e-01</leafValues></_>
        <_>
          <internalNodes>
            0 -1 50 4.4940169900655746e-03</internalNodes>
          <leafValues>
            2.5688856840133667e-01 -7.7189147472381592e-01</leafValues></_>
        <_>
          <internalNodes>
            0 -1 54 -3.6947156768292189e-03</internalNodes>
          <leafValues>
            -7.8381145000457764e-01 2.1574208140373230e-01</leafValues></_>
        <_>
          <internalNodes>
            0 -1 17 1.4763768017292023e-01</internalNodes>
          <leafValues>
            -3.4164211153984070e-01 6.7854106426239014e-01</leafValues></_>
        <_>
          <internalNodes>
            0 -1 16 2.0988103933632374e-03</internalNodes>
          <leafValues>
            2.4602001905441284e-01 -7.2519034147262573e-01</leafValues></_>
        <_>
          <internalNodes>
            0 -1 103 -2.2442257031798363e-03</internalNodes>
          <leafValues>
            -6.6628235578536987e-01 2.4196298420429230e-01</leafValues></_></weakClassifiers></_>
    <!-- stage 8 -->
    <_>
      <maxWeakCount>6</maxWeakCount>
      <stageThreshold>-2.2020719945430756e-01</stageThreshold>
      <weakClassifiers>
        <_>
          <internalNodes>
            0 -1 36 1.1237405240535736e-02</internalNodes>
          <leafValues>
            4.0999999642372131e-01 -5.6410259008407593e-01</leafValues></_>
        <_>
          <internalNodes>
            0 -1 12 6.5693063661456108e-03</internalNodes>
          <leafValues>
            2.9031750559806824e-01 -6.7808431386947632e-01</leafValues></_>
        <_>
          <internalNodes>
            0 -1 71 1.2336361221969128e-02</internalNodes>
          <leafValues>
            3.1086975336074829e-01 -7.3045271635055542e-01</leafValues></_>
        <_>
          <internalNodes>
            0 -1 40 -2.5881077162921429e-03</internalNodes>
          <leafValues>
            7.5042188167572021e-01 -3.0568528175354004e-01</leafValues></_>
        <_>
          <internalNodes>
            0 -1 91 5.9569947188720107e-04</internalNodes>
          <leafValues>
            -2.7059555053710938e-01 7.7181702852249146e-01</leafValues></_>
        <_>
          <internalNodes>
            0 -1 86 -2.4145510978996754e-03</internalNodes>
          <leafValues>
            -6.5511363744735718e-01 4.1169673204421997e-01</leafValues></_></weakClassifiers></_>
    <!-- stage 9 -->
    <_>
      <maxWeakCount>8</maxWeakCount>
      <stageThreshold>-3.6360993981361389e-01</stageThreshold>
      <weakClassifiers>
        <_>
          <internalNodes>
            0 -1 95 -4.2878305539488792e-03</internalNodes>
          <leafValues>
            -5.9420287609100342e-01 3.7799042463302612e-01</leafValues></_>
        <_>
          <internalNodes>
            0 -1 123 -2.9065311537124217e-04</internalNodes>
          <leafValues>
            7.5064796209335327e-01 -2.3811209201812744e-01</leafValues></_>
        <_>
          <internalNodes>
            0 -1 31 4.4786059297621250e-03</internalNodes>
          <leafValues>
            3.3520111441612244e-01 -5.7580703496932983e-01</leafValues></_>
        <_>
          <internalNodes>
            0 -1 83 -1.7887996137142181e-01</internalNodes>
          <leafValues>
            5.0659143924713135e-01 -3.9330345392227173e-01</leafValues></_>
        <_>
          <internalNodes>
            0 -1 48 -2.3541178088635206e-03</internalNodes>
          <leafValues>
            -8.0047905445098877e-01 2.8912866115570068e-01</leafValues></_>
        <_>
          <internalNodes>
            0 -1 116 -2.5435172021389008e-02</internalNodes>
          <leafValues>
            -8.7822961807250977e-01 2.0470006763935089e-01</leafValues></_>
        <_>
          <internalNodes>
            0 -1 69 -4.4133386109024286e-04</internalNodes>
          <leafValues>
            7.7246689796447754e-01 -3.2708376646041870e-01</leafValues></_>
        <_>
          <internalNodes>
            0 -1 117 -5.2394419908523560e-03</internalNodes>
          <leafValues>
            -4.2241808772087097e-01 5.0689756870269775e-01</leafValues></_></weakClassifiers></_>
    <!-- stage 10 -->
    <_>
      <maxWeakCount>7</maxWeakCount>
      <stageThreshold>-4.1254696249961853e-01</stageThreshold>
      <weakClassifiers>
        <_>
          <internalNodes>
            0 -1 56 4.8497304320335388e-02</internalNodes>
          <leafValues>
            -4.2857143282890320e-01 6.5517240762710571e-01</leafValues></_>
        <_>
          <internalNodes>
            0 -1 84 -2.4249285925179720e-03</internalNodes>
          <leafValues>
            9.2011690139770508e-01 -1.8482522666454315e-01</leafValues></_>
        <_>
          <internalNodes>
            0 -1 90 -3.9232991635799408e-02</internalNodes>
          <leafValues>
            4.9109405279159546e-01 -4.2879939079284668e-01</leafValues></_>
        <_>
          <internalNodes>
            0 -1 102 2.2183363034855574e-04</internalNodes>
          <leafValues>
            -2.9658821225166321e-01 6.4429616928100586e-01</leafValues></_>
        <_>
          <internalNodes>
            0 -1 104 1.1614531278610229e-02</internalNodes>
          <leafValues>
            2.8212463855743408e-01 -7.9448914527893066e-01</leafValues></_>
        <_>
          <internalNodes>
            0 -1 110 -4.3211425654590130e-03</internalNodes>
          <leafValues>
            -8.2897561788558960e-01 2.6495641469955444e-01</leafValues></_>
        <_>
          <internalNodes>
            0 -1 81 1.3818885781802237e-04</internalNodes>
          <leafValues>
            -4.4387695193290710e-01 5.3587663173675537e-01</leafValues></_></weakClassifiers></_>
    <!-- stage 11 -->
    <_>
      <maxWeakCount>8</maxWeakCount>
      <stageThreshold>-3.1123438477516174e-01</stageThreshold>
      <weakClassifiers>
        <_>
          <internalNodes>
            0 -1 59 -4.1130490601062775e-02</internalNodes>
          <leafValues>
            4.9707603454589844e-01 -4.3925234675407410e-01</leafValues></_>
        <_>
          <internalNodes>
            0 -1 85 -3.5869327257387340e-04</internalNodes>
          <leafValues>
            7.9217892885208130e-01 -2.1577996015548706e-01</leafValues></_>
        <_>
          <internalNodes>
            0 -1 67 -5.4694642312824726e-04</internalNodes>
          <leafValues>
            9.2472481727600098e-01 -1.6244696080684662e-01</leafValues></_>
        <_>
          <internalNodes>
            0 -1 92 -3.5545940045267344e-04</internalNodes>
          <leafValues>
            8.0776798725128174e-01 -1.8265943229198456e-01</leafValues></_>
        <_>
          <internalNodes>
            0 -1 75 3.3892490318976343e-04</internalNodes>
          <leafValues>
            -2.2602884471416473e-01 7.4362319707870483e-01</leafValues></_>
        <_>
          <internalNodes>
            0 -1 99 -3.7380063440650702e-04</internalNodes>
          <leafValues>
            8.5962218046188354e-01 -2.1606776118278503e-01</leafValues></_>
        <_>
          <internalNodes>
            0 -1 108 2.9519943054765463e-03</internalNodes>
          <leafValues>
            -4.1382706165313721e-01 5.2101564407348633e-01</leafValues></_>
        <_>
          <internalNodes>
            0 -1 55 3.9415745413862169e-04</internalNodes>
          <leafValues>
            -3.2634308934211731e-01 7.3334008455276489e-01</leafValues></_></weakClassifiers></_>
    <!-- stage 12 -->
    <_>
      <maxWeakCount>8</maxWeakCount>
      <stageThreshold>-6.2932556867599487e-01</stageThreshold>
      <weakClassifiers>
        <_>
          <internalNodes>
            0 -1 33 2.2701236885040998e-03</internalNodes>
          <leafValues>
            4.3169400095939636e-01 -4.3157893419265747e-01</leafValues></_>
        <_>
          <internalNodes>
            0 -1 14 1.3866370543837547e-02</internalNodes>
          <leafValues>
            2.2025711834430695e-01 -8.2089895009994507e-01</leafValues></_>
        <_>
          <internalNodes>
            0 -1 122 6.2610423192381859e-03</internalNodes>
          <leafValues>
            3.0620405077934265e-01 -5.1682156324386597e-01</leafValues></_>
        <_>
          <internalNodes>
            0 -1 58 4.0212205052375793e-01</internalNodes>
          <leafValues>
            -2.9499018192291260e-01 7.1126514673233032e-01</leafValues></_>
        <_>
          <internalNodes>
            0 -1 82 -1.2816599337384105e-03</internalNodes>
          <leafValues>
            5.5412393808364868e-01 -3.1314823031425476e-01</leafValues></_>
        <_>
          <internalNodes>
            0 -1 28 5.5706873536109924e-03</internalNodes>
          <leafValues>
            3.5176378488540649e-01 -5.5793237686157227e-01</leafValues></_>
        <_>
          <internalNodes>
            0 -1 130 -1.4644155278801918e-02</internalNodes>
          <leafValues>
            -6.6431945562362671e-01 2.0260035991668701e-01</leafValues></_>
        <_>
          <internalNodes>
            0 -1 133 -3.2649245113134384e-03</internalNodes>
          <leafValues>
            -6.2588679790496826e-01 2.3926258087158203e-01</leafValues></_></weakClassifiers></_>
    <!-- stage 13 -->
    <_>
      <maxWeakCount>8</maxWeakCount>
      <stageThreshold>-5.9756833314895630e-01</stageThreshold>
      <weakClassifiers>
        <_>
          <internalNodes>
            0 -1 39 1.8517026305198669e-01</internalNodes>
          <leafValues>
            -3.8888889551162720e-01 4.7058823704719543e-01</leafValues></_>
        <_>
          <internalNodes>
            0 -1 22 3.6742151714861393e-03</internalNodes>
          <leafValues>
            2.0278327167034149e-01 -7.3203176259994507e-01</leafValues></_>
        <_>
          <internalNodes>
            0 -1 25 7.9257236793637276e-03</internalNodes>
          <leafValues>
            -2.5100588798522949e-01 5.5838960409164429e-01</leafValues></_>
        <_>
          <internalNodes>
            0 -1 113 -6.8774716055486351e-05</internalNodes>
          <leafValues>
            5.0093501806259155e-01 -3.1123530864715576e-01</leafValues></_>
        <_>
          <internalNodes>
            0 -1 121 2.8307684697210789e-03</internalNodes>
          <leafValues>
            1.7090824246406555e-01 -8.0536252260208130e-01</leafValues></_>
        <_>
          <internalNodes>
            0 -1 118 -6.0123344883322716e-03</internalNodes>
          <leafValues>
            -6.5507191419601440e-01 2.6692682504653931e-01</leafValues></_>
        <_>
          <internalNodes>
            0 -1 98 9.4634981360286474e-04</internalNodes>
          <leafValues>
            -2.8775548934936523e-01 5.2275162935256958e-01</leafValues></_>
        <_>
          <internalNodes>
            0 -1 3 6.6185407340526581e-03</internalNodes>
          <leafValues>
            2.3292252421379089e-01 -6.8716353178024292e-01</leafValues></_></weakClassifiers></_>
    <!-- stage 14 -->
    <_>
      <maxWeakCount>10</maxWeakCount>
      <stageThreshold>-7.9495984315872192e-01</stageThreshold>
      <weakClassifiers>
        <_>
          <internalNodes>
            0 -1 136 8.6426157504320145e-03</internalNodes>
          <leafValues>
            4.2564103007316589e-01 -5.4216867685317993e-01</leafValues></_>
        <_>
          <internalNodes>
            0 -1 46 6.8054318428039551e-02</internalNodes>
          <leafValues>
            -2.9595386981964111e-01 6.5940850973129272e-01</leafValues></_>
        <_>
          <internalNodes>
            0 -1 29 3.8276502891676500e-05</internalNodes>
          <leafValues>
            -3.0829989910125732e-01 4.9983426928520203e-01</leafValues></_>
        <_>
          <internalNodes>
            0 -1 6 -2.4139031767845154e-02</internalNodes>
          <leafValues>
            -7.9392492771148682e-01 1.9701157510280609e-01</leafValues></_>
        <_>
          <internalNodes>
            0 -1 5 1.6303953528404236e-01</internalNodes>
          <leafValues>
            -2.6768332719802856e-01 6.0821163654327393e-01</leafValues></_>
        <_>
          <internalNodes>
            0 -1 93 -1.8552772235125303e-03</internalNodes>
          <leafValues>
            8.2689505815505981e-01 -2.0668223500251770e-01</leafValues></_>
        <_>
          <internalNodes>
            0 -1 70 8.6043939518276602e-05</internalNodes>
          <leafValues>
            -2.2774873673915863e-01 6.0109543800354004e-01</leafValues></_>
        <_>
          <internalNodes>
            0 -1 100 -2.4887453764677048e-04</internalNodes>
          <leafValues>
            6.3738960027694702e-01 -2.7980685234069824e-01</leafValues></_>
        <_>
          <internalNodes>
            0 -1 74 -1.6076400643214583e-03</internalNodes>
          <leafValues>
            7.7051526308059692e-01 -1.7686013877391815e-01</leafValues></_>
        <_>
          <internalNodes>
            0 -1 65 -1.9870050891768187e-05</internalNodes>
          <leafValues>
            5.0509816408157349e-01 -3.6157938838005066e-01</leafValues></_></weakClassifiers></_>
    <!-- stage 15 -->
    <_>
      <maxWeakCount>7</maxWeakCount>
      <stageThreshold>-4.0267717838287354e-01</stageThreshold>
      <weakClassifiers>
        <_>
          <internalNodes>
            0 -1 47 -1.5025029424577951e-03</internalNodes>
          <leafValues>
            -3.8613861799240112e-01 4.3502825498580933e-01</leafValues></_>
        <_>
          <internalNodes>
            0 -1 49 -4.0421783924102783e-03</internalNodes>
          <leafValues>
            -5.8299577236175537e-01 3.3315506577491760e-01</leafValues></_>
        <_>
          <internalNodes>
            0 -1 131 -6.6214078105986118e-03</internalNodes>
          <leafValues>
            -6.7362576723098755e-01 2.2552463412284851e-01</leafValues></_>
        <_>
          <internalNodes>
            0 -1 119 5.3785694763064384e-04</internalNodes>
          <leafValues>
            -2.9141777753829956e-01 6.5933150053024292e-01</leafValues></_>
        <_>
          <internalNodes>
            0 -1 76 3.4040557220578194e-03</internalNodes>
          <leafValues>
            2.3923255503177643e-01 -7.3432952165603638e-01</leafValues></_>
        <_>
          <internalNodes>
            0 -1 114 7.3966667987406254e-03</internalNodes>
          <leafValues>
            2.5549545884132385e-01 -7.1824783086776733e-01</leafValues></_>
        <_>
          <internalNodes>
            0 -1 1 2.1547242067754269e-03</internalNodes>
          <leafValues>
            2.7364787459373474e-01 -6.2595212459564209e-01</leafValues></_></weakClassifiers></_>
    <!-- stage 16 -->
    <_>
      <maxWeakCount>9</maxWeakCount>
      <stageThreshold>-9.2980295419692993e-01</stageThreshold>
      <weakClassifiers>
        <_>
          <internalNodes>
            0 -1 109 8.1149004399776459e-03</internalNodes>
          <leafValues>
            3.2456141710281372e-01 -7.2000002861022949e-01</leafValues></_>
        <_>
          <internalNodes>
            0 -1 134 7.9537425190210342e-03</internalNodes>
          <leafValues>
            2.5528773665428162e-01 -6.0192126035690308e-01</leafValues></_>
        <_>
          <internalNodes>
            0 -1 101 7.5293157715350389e-04</internalNodes>
          <leafValues>
            -1.8076042830944061e-01 9.1593033075332642e-01</leafValues></_>
        <_>
          <internalNodes>
            0 -1 112 3.4962096251547337e-03</internalNodes>
          <leafValues>
            -1.6431991755962372e-01 8.0978560447692871e-01</leafValues></_>
        <_>
          <internalNodes>
            0 -1 62 2.8270820621401072e-03</internalNodes>
          <leafValues>
            -2.0511992275714874e-01 6.3804298639297485e-01</leafValues></_>
        <_>
          <internalNodes>
            0 -1 89 -8.4290938684716821e-04</internalNodes>
          <leafValues>
            8.2710903882980347e-01 -1.9591046869754791e-01</leafValues></_>
        <_>
          <internalNodes>
            0 -1 128 5.2076731808483601e-03</internalNodes>
          <leafValues>
            2.4272780120372772e-01 -7.6182633638381958e-01</leafValues></_>
        <_>
          <internalNodes>
            0 -1 15 -6.7273620516061783e-03</internalNodes>
          <leafValues>
            -6.9657450914382935e-01 2.0780751109123230e-01</leafValues></_>
        <_>
          <internalNodes>
            0 -1 94 -3.1406251946464181e-04</internalNodes>
          <leafValues>
            6.4704728126525879e-01 -3.0969461798667908e-01</leafValues></_></weakClassifiers></_>
    <!-- stage 17 -->
    <_>
      <maxWeakCount>7</maxWeakCount>
      <stageThreshold>-9.8016935586929321e-01</stageThreshold>
      <weakClassifiers>
        <_>
          <internalNodes>
            0 -1 52 -1.2160712480545044e-01</internalNodes>
          <leafValues>
            5.7251906394958496e-01 -2.5170066952705383e-01</leafValues></_>
        <_>
          <internalNodes>
            0 -1 72 -1.4848140999674797e-03</internalNodes>
          <leafValues>
            -5.9667056798934937e-01 2.8366371989250183e-01</leafValues></_>
        <_>
          <internalNodes>
            0 -1 9 2.8357547707855701e-03</internalNodes>
          <leafValues>
            2.2998477518558502e-01 -7.1435785293579102e-01</leafValues></_>
        <_>
          <internalNodes>
            0 -1 35 2.2148974239826202e-03</internalNodes>
          <leafValues>
            2.0296123623847961e-01 -7.5498068332672119e-01</leafValues></_>
        <_>
          <internalNodes>
            0 -1 125 -9.8263379186391830e-03</internalNodes>
          <leafValues>
            -6.1609876155853271e-01 2.7064034342765808e-01</leafValues></_>
        <_>
          <internalNodes>
            0 -1 53 -8.4576185327023268e-04</internalNodes>
          <leafValues>
            8.6948704719543457e-01 -2.1717984974384308e-01</leafValues></_>
        <_>
          <internalNodes>
            0 -1 11 -6.1259809881448746e-03</internalNodes>
          <leafValues>
            -6.6555774211883545e-01 2.6853445172309875e-01</leafValues></_></weakClassifiers></_>
    <!-- stage 18 -->
    <_>
      <maxWeakCount>10</maxWeakCount>
      <stageThreshold>-5.9791868925094604e-01</stageThreshold>
      <weakClassifiers>
        <_>
          <internalNodes>
            0 -1 78 -5.1743927178904414e-04</internalNodes>
          <leafValues>
            7.7142858505249023e-01 -7.6923079788684845e-02</leafValues></_>
        <_>
          <internalNodes>
            0 -1 96 4.2734649032354355e-03</internalNodes>
          <leafValues>
            -1.7854119837284088e-01 7.0931851863861084e-01</leafValues></_>
        <_>
          <internalNodes>
            0 -1 120 -4.3271356262266636e-03</internalNodes>
          <leafValues>
            6.6444569826126099e-01 -2.0920373499393463e-01</leafValues></_>
        <_>
          <internalNodes>
            0 -1 80 1.0657662525773048e-02</internalNodes>
          <leafValues>
            2.1329559385776520e-01 -7.1204739809036255e-01</leafValues></_>
        <_>
          <internalNodes>
            0 -1 124 -5.1995636895298958e-03</internalNodes>
          <leafValues>
            -6.5365213155746460e-01 2.2316704690456390e-01</leafValues></_>
        <_>
          <internalNodes>
            0 -1 132 -5.6384406052529812e-03</internalNodes>
          <leafValues>
            -6.4616841077804565e-01 2.4968585371971130e-01</leafValues></_>
        <_>
          <internalNodes>
            0 -1 79 -8.2418039441108704e-02</internalNodes>
          <leafValues>
            6.0269743204116821e-01 -2.9882383346557617e-01</leafValues></_>
        <_>
          <internalNodes>
            0 -1 37 9.0551655739545822e-03</internalNodes>
          <leafValues>
            3.1979224085807800e-01 -4.5563569664955139e-01</leafValues></_>
        <_>
          <internalNodes>
            0 -1 97 -4.7513968311250210e-03</internalNodes>
          <leafValues>
            7.6624596118927002e-01 -2.4494263529777527e-01</leafValues></_>
        <_>
          <internalNodes>
            0 -1 111 -4.2294869199395180e-03</internalNodes>
          <leafValues>
            -5.6525671482086182e-01 3.2889690995216370e-01</leafValues></_></weakClassifiers></_>
    <!-- stage 19 -->
    <_>
      <maxWeakCount>7</maxWeakCount>
      <stageThreshold>-3.9208737015724182e-01</stageThreshold>
      <weakClassifiers>
        <_>
          <internalNodes>
            0 -1 107 1.6753137111663818e-02</internalNodes>
          <leafValues>
            3.0769231915473938e-01 -7.7272725105285645e-01</leafValues></_>
        <_>
          <internalNodes>
            0 -1 68 -3.9047148311510682e-04</internalNodes>
          <leafValues>
            8.0503487586975098e-01 -2.0947073400020599e-01</leafValues></_>
        <_>
          <internalNodes>
            0 -1 105 -3.6729369312524796e-03</internalNodes>
          <leafValues>
            8.1652849912643433e-01 -1.5269255638122559e-01</leafValues></_>
        <_>
          <internalNodes>
            0 -1 32 -8.1078032962977886e-04</internalNodes>
          <leafValues>
            -4.2972016334533691e-01 3.8903656601905823e-01</leafValues></_>
        <_>
          <internalNodes>
            0 -1 66 -9.2091422993689775e-04</internalNodes>
          <leafValues>
            8.6741602420806885e-01 -2.2813972830772400e-01</leafValues></_>
        <_>
          <internalNodes>
            0 -1 30 -4.2169960215687752e-03</internalNodes>
          <leafValues>
            -6.9696116447448730e-01 2.7733290195465088e-01</leafValues></_>
        <_>
          <internalNodes>
            0 -1 129 9.5733497291803360e-03</internalNodes>
          <leafValues>
            3.0457344651222229e-01 -5.8976846933364868e-01</leafValues></_></weakClassifiers></_></stages>
  <features>
    <_>
      <rects>
        <_>
          0 0 21 24 -1.</_>
        <_>
          0 8 21 8 3.</_></rects>
      <tilted>0</tilted></_>
    <_>
      <rects>
        <_>
          0 2 2 6 -1.</_>
        <_>
          0 5 2 3 2.</_></rects>
      <tilted>0</tilted></_>
    <_>
      <rects>
        <_>
          0 3 1 9 -1.</_>
        <_>
          0 6 1 3 3.</_></rects>
      <tilted>0</tilted></_>
    <_>
      <rects>
        <_>
          0 3 2 12 -1.</_>
        <_>
          0 9 2 6 2.</_></rects>
      <tilted>0</tilted></_>
    <_>
      <rects>
        <_>
          0 4 2 2 -1.</_>
        <_>
          1 4 1 2 2.</_></rects>
      <tilted>0</tilted></_>
    <_>
      <rects>
        <_>
          0 5 18 15 -1.</_>
        <_>
          6 5 6 15 3.</_></rects>
      <tilted>0</tilted></_>
    <_>
      <rects>
        <_>
          0 5 7 12 -1.</_>
        <_>
          0 9 7 4 3.</_></rects>
      <tilted>0</tilted></_>
    <_>
      <rects>
        <_>
          0 5 24 9 -1.</_>
        <_>
          8 5 8 9 3.</_></rects>
      <tilted>0</tilted></_>
    <_>
      <rects>
        <_>
          0 5 24 19 -1.</_>
        <_>
          8 5 8 19 3.</_></rects>
      <tilted>0</tilted></_>
    <_>
      <rects>
        <_>
          0 6 1 9 -1.</_>
        <_>
          0 9 1 3 3.</_></rects>
      <tilted>0</tilted></_>
    <_>
      <rects>
        <_>
          0 6 3 11 -1.</_>
        <_>
          1 6 1 11 3.</_></rects>
      <tilted>0</tilted></_>
    <_>
      <rects>
        <_>
          0 6 8 4 -1.</_>
        <_>
          4 6 4 4 2.</_></rects>
      <tilted>0</tilted></_>
    <_>
      <rects>
        <_>
          0 7 3 10 -1.</_>
        <_>
          0 12 3 5 2.</_></rects>
      <tilted>0</tilted></_>
    <_>
      <rects>
        <_>
          0 9 1 8 -1.</_>
        <_>
          0 13 1 4 2.</_></rects>
      <tilted>0</tilted></_>
    <_>
      <rects>
        <_>
          0 9 2 12 -1.</_>
        <_>
          0 13 2 4 3.</_></rects>
      <tilted>0</tilted></_>
    <_>
      <rects>
        <_>
          0 10 6 9 -1.</_>
        <_>
          3 10 3 9 2.</_></rects>
      <tilted>0</tilted></_>
    <_>
      <rects>
        <_>
          0 11 1 8 -1.</_>
        <_>
          0 15 1 4 2.</_></rects>
      <tilted>0</tilted></_>
    <_>
      <rects>
        <_>
          0 11 24 4 -1.</_>
        <_>
          8 11 8 4 3.</_></rects>
      <tilted>0</tilted></_>
    <_>
      <rects>
        <_>
          0 12 2 3 -1.</_>
        <_>
          1 12 1 3 2.</_></rects>
      <tilted>0</tilted></_>
    <_>
      <rects>
        <_>
          0 12 2 8 -1.</_>
        <_>
          1 12 1 8 2.</_></rects>
      <tilted>0</tilted></_>
    <_>
      <rects>
        <_>
          0 13 4 9 -1.</_>
        <_>
          2 13 2 9 2.</_></rects>
      <tilted>0</tilted></_>
    <_>
      <rects>
        <_>
          0 13 3 8 -1.</_>
        <_>
          0 17 3 4 2.</_></rects>
      <tilted>0</tilted></_>
    <_>
      <rects>
        <_>
          0 20 4 3 -1.</_>
        <_>
          2 20 2 3 2.</_></rects>
      <tilted>0</tilted></_>
    <_>
      <rects>
        <_>
          0 22 2 2 -1.</_>
        <_>
          0 22 1 1 2.</_>
        <_>
          1 23 1 1 2.</_></rects>
      <tilted>0</tilted></_>
    <_>
      <rects>
        <_>
          1 0 4 2 -1.</_>
        <_>
          1 1 4 1 2.</_></rects>
      <tilted>0</tilted></_>
    <_>
      <rects>
        <_>
          1 4 12 4 -1.</_>
        <_>
          1 4 6 2 2.</_>
        <_>
          7 6 6 2 2.</_></rects>
      <tilted>0</tilted></_>
    <_>
      <rects>
        <_>
          1 6 6 13 -1.</_>
        <_>
          3 6 2 13 3.</_></rects>
      <tilted>0</tilted></_>
    <_>
      <rects>
        <_>
          1 10 4 2 -1.</_>
        <_>
          1 10 2 1 2.</_>
        <_>
          3 11 2 1 2.</_></rects>
      <tilted>0</tilted></_>
    <_>
      <rects>
        <_>
          1 11 4 12 -1.</_>
        <_>
          1 17 4 6 2.</_></rects>
      <tilted>0</tilted></_>
    <_>
      <rects>
        <_>
          1 12 2 2 -1.</_>
        <_>
          1 12 1 1 2.</_>
        <_>
          2 13 1 1 2.</_></rects>
      <tilted>0</tilted></_>
    <_>
      <rects>
        <_>
          1 13 3 6 -1.</_>
        <_>
          1 15 3 2 3.</_></rects>
      <tilted>0</tilted></_>
    <_>
      <rects>
        <_>
          1 14 4 5 -1.</_>
        <_>
          3 14 2 5 2.</_></rects>
      <tilted>0</tilted></_>
    <_>
      <rects>
        <_>
          1 16 4 3 -1.</_>
        <_>
          3 16 2 3 2.</_></rects>
      <tilted>0</tilted></_>
    <_>
      <rects>
        <_>
          1 17 4 6 -1.</_>
        <_>
          1 20 4 3 2.</_></rects>
      <tilted>0</tilted></_>
    <_>
      <rects>
        <_>
          1 19 4 4 -1.</_>
        <_>
          3 19 2 4 2.</_></rects>
      <tilted>0</tilted></_>
    <_>
      <rects>
        <_>
          1 21 6 2 -1.</_>
        <_>
          1 22 6 1 2.</_></rects>
      <tilted>0</tilted></_>
    <_>
      <rects>
        <_>
          1 21 12 3 -1.</_>
        <_>
          7 21 6 3 2.</_></rects>
      <tilted>0</tilted></_>
    <_>
      <rects>
        <_>
          1 21 18 3 -1.</_>
        <_>
          7 21 6 3 3.</_></rects>
      <tilted>0</tilted></_>
    <_>
      <rects>
        <_>
          2 0 21 19 -1.</_>
        <_>
          9 0 7 19 3.</_></rects>
      <tilted>0</tilted></_>
    <_>
      <rects>
        <_>
          2 0 21 22 -1.</_>
        <_>
          9 0 7 22 3.</_></rects>
      <tilted>0</tilted></_>
    <_>
      <rects>
        <_>
          2 1 9 3 -1.</_>
        <_>
          2 2 9 1 3.</_></rects>
      <tilted>0</tilted></_>
    <_>
      <rects>
        <_>
          2 4 21 18 -1.</_>
        <_>
          9 4 7 18 3.</_></rects>
      <tilted>0</tilted></_>
    <_>
      <rects>
        <_>
          2 17 10 6 -1.</_>
        <_>
          2 20 10 3 2.</_></rects>
      <tilted>0</tilted></_>
    <_>
      <rects>
        <_>
          2 20 6 2 -1.</_>
        <_>
          4 20 2 2 3.</_></rects>
      <tilted>0</tilted></_>
    <_>
      <rects>
        <_>
          2 21 6 3 -1.</_>
        <_>
          4 21 2 3 3.</_></rects>
      <tilted>0</tilted></_>
    <_>
      <rects>
        <_>
          3 0 17 24 -1.</_>
        <_>
          3 8 17 8 3.</_></rects>
      <tilted>0</tilted></_>
    <_>
      <rects>
        <_>
          3 10 21 3 -1.</_>
        <_>
          10 10 7 3 3.</_></rects>
      <tilted>0</tilted></_>
    <_>
      <rects>
        <_>
          3 14 1 6 -1.</_>
        <_>
          3 17 1 3 2.</_></rects>
      <tilted>0</tilted></_>
    <_>
      <rects>
        <_>
          3 16 2 7 -1.</_>
        <_>
          4 16 1 7 2.</_></rects>
      <tilted>0</tilted></_>
    <_>
      <rects>
        <_>
          3 20 8 4 -1.</_>
        <_>
          7 20 4 4 2.</_></rects>
      <tilted>0</tilted></_>
    <_>
      <rects>
        <_>
          3 21 6 2 -1.</_>
        <_>
          6 21 3 2 2.</_></rects>
      <tilted>0</tilted></_>
    <_>
      <rects>
        <_>
          4 8 12 16 -1.</_>
        <_>
          4 16 12 8 2.</_></rects>
      <tilted>0</tilted></_>
    <_>
      <rects>
        <_>
          4 10 14 14 -1.</_>
        <_>
          4 17 14 7 2.</_></rects>
      <tilted>0</tilted></_>
    <_>
      <rects>
        <_>
          4 15 3 1 -1.</_>
        <_>
          5 15 1 1 3.</_></rects>
      <tilted>0</tilted></_>
    <_>
      <rects>
        <_>
          4 21 4 3 -1.</_>
        <_>
          6 21 2 3 2.</_></rects>
      <tilted>0</tilted></_>
    <_>
      <rects>
        <_>
          5 0 1 3 -1.</_>
        <_>
          5 1 1 1 3.</_></rects>
      <tilted>0</tilted></_>
    <_>
      <rects>
        <_>
          5 0 12 12 -1.</_>
        <_>
          5 6 12 6 2.</_></rects>
      <tilted>0</tilted></_>
    <_>
      <rects>
        <_>
          5 0 14 21 -1.</_>
        <_>
          5 7 14 7 3.</_></rects>
      <tilted>0</tilted></_>
    <_>
      <rects>
        <_>
          5 0 16 24 -1.</_>
        <_>
          5 8 16 8 3.</_></rects>
      <tilted>0</tilted></_>
    <_>
      <rects>
        <_>
          5 7 8 16 -1.</_>
        <_>
          5 15 8 8 2.</_></rects>
      <tilted>0</tilted></_>
    <_>
      <rects>
        <_>
          5 8 9 16 -1.</_>
        <_>
          5 16 9 8 2.</_></rects>
      <tilted>0</tilted></_>
    <_>
      <rects>
        <_>
          5 21 3 2 -1.</_>
        <_>
          6 21 1 2 3.</_></rects>
      <tilted>0</tilted></_>
    <_>
      <rects>
        <_>
          6 2 3 14 -1.</_>
        <_>
          7 2 1 14 3.</_></rects>
      <tilted>0</tilted></_>
    <_>
      <rects>
        <_>
          6 2 4 18 -1.</_>
        <_>
          8 2 2 18 2.</_></rects>
      <tilted>0</tilted></_>
    <_>
      <rects>
        <_>
          6 2 18 15 -1.</_>
        <_>
          15 2 9 15 2.</_></rects>
      <tilted>0</tilted></_>
    <_>
      <rects>
        <_>
          7 3 2 2 -1.</_>
        <_>
          7 3 1 1 2.</_>
        <_>
          8 4 1 1 2.</_></rects>
      <tilted>0</tilted></_>
    <_>
      <rects>
        <_>
          7 7 1 3 -1.</_>
        <_>
          7 8 1 1 3.</_></rects>
      <tilted>0</tilted></_>
    <_>
      <rects>
        <_>
          7 10 2 2 -1.</_>
        <_>
          7 10 1 1 2.</_>
        <_>
          8 11 1 1 2.</_></rects>
      <tilted>0</tilted></_>
    <_>
      <rects>
        <_>
          7 13 2 2 -1.</_>
        <_>
          7 13 1 1 2.</_>
        <_>
          8 14 1 1 2.</_></rects>
      <tilted>0</tilted></_>
    <_>
      <rects>
        <_>
          7 14 2 2 -1.</_>
        <_>
          7 14 1 1 2.</_>
        <_>
          8 15 1 1 2.</_></rects>
      <tilted>0</tilted></_>
    <_>
      <rects>
        <_>
          7 18 2 2 -1.</_>
        <_>
          7 18 1 1 2.</_>
        <_>
          8 19 1 1 2.</_></rects>
      <tilted>0</tilted></_>
    <_>
      <rects>
        <_>
          7 20 16 4 -1.</_>
        <_>
          15 20 8 4 2.</_></rects>
      <tilted>0</tilted></_>
    <_>
      <rects>
        <_>
          8 0 1 8 -1.</_>
        <_>
          8 4 1 4 2.</_></rects>
      <tilted>0</tilted></_>
    <_>
      <rects>
        <_>
          8 0 16 22 -1.</_>
        <_>
          16 0 8 22 2.</_></rects>
      <tilted>0</tilted></_>
    <_>
      <rects>
        <_>
          8 8 3 15 -1.</_>
        <_>
          9 8 1 15 3.</_></rects>
      <tilted>0</tilted></_>
    <_>
      <rects>
        <_>
          8 14 2 2 -1.</_>
        <_>
          8 14 1 1 2.</_>
        <_>
          9 15 1 1 2.</_></rects>
      <tilted>0</tilted></_>
    <_>
      <rects>
        <_>
          8 19 12 1 -1.</_>
        <_>
          14 19 6 1 2.</_></rects>
      <tilted>0</tilted></_>
    <_>
      <rects>
        <_>
          9 0 12 24 -1.</_>
        <_>
          9 8 12 8 3.</_></rects>
      <tilted>0</tilted></_>
    <_>
      <rects>
        <_>
          9 9 3 2 -1.</_>
        <_>
          10 9 1 2 3.</_></rects>
      <tilted>0</tilted></_>
    <_>
      <rects>
        <_>
          9 14 13 10 -1.</_>
        <_>
          9 19 13 5 2.</_></rects>
      <tilted>0</tilted></_>
    <_>
      <rects>
        <_>
          10 0 8 8 -1.</_>
        <_>
          10 0 4 4 2.</_>
        <_>
          14 4 4 4 2.</_></rects>
      <tilted>0</tilted></_>
    <_>
      <rects>
        <_>
          10 2 2 4 -1.</_>
        <_>
          10 2 1 2 2.</_>
        <_>
          11 4 1 2 2.</_></rects>
      <tilted>0</tilted></_>
    <_>
      <rects>
        <_>
          10 6 11 3 -1.</_>
        <_>
          10 7 11 1 3.</_></rects>
      <tilted>0</tilted></_>
    <_>
      <rects>
        <_>
          10 7 14 12 -1.</_>
        <_>
          17 7 7 12 2.</_></rects>
      <tilted>0</tilted></_>
    <_>
      <rects>
        <_>
          10 10 11 3 -1.</_>
        <_>
          10 11 11 1 3.</_></rects>
      <tilted>0</tilted></_>
    <_>
      <rects>
        <_>
          10 11 2 2 -1.</_>
        <_>
          10 11 1 1 2.</_>
        <_>
          11 12 1 1 2.</_></rects>
      <tilted>0</tilted></_>
    <_>
      <rects>
        <_>
          10 17 4 3 -1.</_>
        <_>
          12 17 2 3 2.</_></rects>
      <tilted>0</tilted></_>
    <_>
      <rects>
        <_>
          11 0 4 24 -1.</_>
        <_>
          11 8 4 8 3.</_></rects>
      <tilted>0</tilted></_>
    <_>
      <rects>
        <_>
          11 22 12 2 -1.</_>
        <_>
          17 22 6 2 2.</_></rects>
      <tilted>0</tilted></_>
    <_>
      <rects>
        <_>
          12 2 3 1 -1.</_>
        <_>
          13 2 1 1 3.</_></rects>
      <tilted>0</tilted></_>
    <_>
      <rects>
        <_>
          12 10 5 14 -1.</_>
        <_>
          12 17 5 7 2.</_></rects>
      <tilted>0</tilted></_>
    <_>
      <rects>
        <_>
          12 13 3 1 -1.</_>
        <_>
          13 13 1 1 3.</_></rects>
      <tilted>0</tilted></_>
    <_>
      <rects>
        <_>
          12 13 1 3 -1.</_>
        <_>
          12 14 1 1 3.</_></rects>
      <tilted>0</tilted></_>
    <_>
      <rects>
        <_>
          12 13 3 4 -1.</_>
        <_>
          13 13 1 4 3.</_></rects>
      <tilted>0</tilted></_>
    <_>
      <rects>
        <_>
          13 13 3 1 -1.</_>
        <_>
          14 13 1 1 3.</_></rects>
      <tilted>0</tilted></_>
    <_>
      <rects>
        <_>
          13 22 6 2 -1.</_>
        <_>
          16 22 3 2 2.</_></rects>
      <tilted>0</tilted></_>
    <_>
      <rects>
        <_>
          14 2 3 22 -1.</_>
        <_>
          15 2 1 22 3.</_></rects>
      <tilted>0</tilted></_>
    <_>
      <rects>
        <_>
          14 7 3 10 -1.</_>
        <_>
          15 7 1 10 3.</_></rects>
      <tilted>0</tilted></_>
    <_>
      <rects>
        <_>
          14 8 3 5 -1.</_>
        <_>
          15 8 1 5 3.</_></rects>
      <tilted>0</tilted></_>
    <_>
      <rects>
        <_>
          14 9 2 2 -1.</_>
        <_>
          14 9 1 1 2.</_>
        <_>
          15 10 1 1 2.</_></rects>
      <tilted>0</tilted></_>
    <_>
      <rects>
        <_>
          14 11 2 2 -1.</_>
        <_>
          14 11 1 1 2.</_>
        <_>
          15 12 1 1 2.</_></rects>
      <tilted>0</tilted></_>
    <_>
      <rects>
        <_>
          14 15 3 1 -1.</_>
        <_>
          15 15 1 1 3.</_></rects>
      <tilted>0</tilted></_>
    <_>
      <rects>
        <_>
          14 16 1 3 -1.</_>
        <_>
          14 17 1 1 3.</_></rects>
      <tilted>0</tilted></_>
    <_>
      <rects>
        <_>
          14 17 4 2 -1.</_>
        <_>
          16 17 2 2 2.</_></rects>
      <tilted>0</tilted></_>
    <_>
      <rects>
        <_>
          14 19 10 4 -1.</_>
        <_>
          19 19 5 4 2.</_></rects>
      <tilted>0</tilted></_>
    <_>
      <rects>
        <_>
          15 7 3 6 -1.</_>
        <_>
          16 7 1 6 3.</_></rects>
      <tilted>0</tilted></_>
    <_>
      <rects>
        <_>
          15 18 2 6 -1.</_>
        <_>
          15 21 2 3 2.</_></rects>
      <tilted>0</tilted></_>
    <_>
      <rects>
        <_>
          16 0 8 10 -1.</_>
        <_>
          16 0 4 5 2.</_>
        <_>
          20 5 4 5 2.</_></rects>
      <tilted>0</tilted></_>
    <_>
      <rects>
        <_>
          16 0 6 12 -1.</_>
        <_>
          16 6 6 6 2.</_></rects>
      <tilted>0</tilted></_>
    <_>
      <rects>
        <_>
          16 20 8 3 -1.</_>
        <_>
          20 20 4 3 2.</_></rects>
      <tilted>0</tilted></_>
    <_>
      <rects>
        <_>
          16 22 8 1 -1.</_>
        <_>
          20 22 4 1 2.</_></rects>
      <tilted>0</tilted></_>
    <_>
      <rects>
        <_>
          17 3 7 8 -1.</_>
        <_>
          17 7 7 4 2.</_></rects>
      <tilted>0</tilted></_>
    <_>
      <rects>
        <_>
          17 4 3 11 -1.</_>
        <_>
          18 4 1 11 3.</_></rects>
      <tilted>0</tilted></_>
    <_>
      <rects>
        <_>
          17 19 2 2 -1.</_>
        <_>
          17 19 1 1 2.</_>
        <_>
          18 20 1 1 2.</_></rects>
      <tilted>0</tilted></_>
    <_>
      <rects>
        <_>
          18 0 6 8 -1.</_>
        <_>
          21 0 3 8 2.</_></rects>
      <tilted>0</tilted></_>
    <_>
      <rects>
        <_>
          18 4 4 10 -1.</_>
        <_>
          20 4 2 10 2.</_></rects>
      <tilted>0</tilted></_>
    <_>
      <rects>
        <_>
          18 6 6 18 -1.</_>
        <_>
          18 6 3 9 2.</_>
        <_>
          21 15 3 9 2.</_></rects>
      <tilted>0</tilted></_>
    <_>
      <rects>
        <_>
          18 7 4 7 -1.</_>
        <_>
          20 7 2 7 2.</_></rects>
      <tilted>0</tilted></_>
    <_>
      <rects>
        <_>
          18 8 5 6 -1.</_>
        <_>
          18 11 5 3 2.</_></rects>
      <tilted>0</tilted></_>
    <_>
      <rects>
        <_>
          18 20 1 3 -1.</_>
        <_>
          18 21 1 1 3.</_></rects>
      <tilted>0</tilted></_>
    <_>
      <rects>
        <_>
          19 0 3 20 -1.</_>
        <_>
          20 0 1 20 3.</_></rects>
      <tilted>0</tilted></_>
    <_>
      <rects>
        <_>
          19 2 4 2 -1.</_>
        <_>
          21 2 2 2 2.</_></rects>
      <tilted>0</tilted></_>
    <_>
      <rects>
        <_>
          19 2 3 8 -1.</_>
        <_>
          19 6 3 4 2.</_></rects>
      <tilted>0</tilted></_>
    <_>
      <rects>
        <_>
          19 10 2 2 -1.</_>
        <_>
          19 10 1 1 2.</_>
        <_>
          20 11 1 1 2.</_></rects>
      <tilted>0</tilted></_>
    <_>
      <rects>
        <_>
          19 10 5 6 -1.</_>
        <_>
          19 12 5 2 3.</_></rects>
      <tilted>0</tilted></_>
    <_>
      <rects>
        <_>
          20 2 4 10 -1.</_>
        <_>
          20 7 4 5 2.</_></rects>
      <tilted>0</tilted></_>
    <_>
      <rects>
        <_>
          20 4 4 18 -1.</_>
        <_>
          20 4 2 9 2.</_>
        <_>
          22 13 2 9 2.</_></rects>
      <tilted>0</tilted></_>
    <_>
      <rects>
        <_>
          20 13 4 10 -1.</_>
        <_>
          22 13 2 10 2.</_></rects>
      <tilted>0</tilted></_>
    <_>
      <rects>
        <_>
          20 20 4 4 -1.</_>
        <_>
          20 22 4 2 2.</_></rects>
      <tilted>0</tilted></_>
    <_>
      <rects>
        <_>
          21 2 3 14 -1.</_>
        <_>
          21 9 3 7 2.</_></rects>
      <tilted>0</tilted></_>
    <_>
      <rects>
        <_>
          21 7 3 15 -1.</_>
        <_>
          21 12 3 5 3.</_></rects>
      <tilted>0</tilted></_>
    <_>
      <rects>
        <_>
          21 11 2 8 -1.</_>
        <_>
          21 15 2 4 2.</_></rects>
      <tilted>0</tilted></_>
    <_>
      <rects>
        <_>
          21 11 3 8 -1.</_>
        <_>
          21 15 3 4 2.</_></rects>
      <tilted>0</tilted></_>
    <_>
      <rects>
        <_>
          21 16 3 6 -1.</_>
        <_>
          21 19 3 3 2.</_></rects>
      <tilted>0</tilted></_>
    <_>
      <rects>
        <_>
          22 4 1 18 -1.</_>
        <_>
          22 10 1 6 3.</_></rects>
      <tilted>0</tilted></_>
    <_>
      <rects>
        <_>
          22 9 2 10 -1.</_>
        <_>
          22 14 2 5 2.</_></rects>
      <tilted>0</tilted></_>
    <_>
      <rects>
        <_>
          23 0 1 22 -1.</_>
        <_>
          23 11 1 11 2.</_></rects>
      <tilted>0</tilted></_></features></cascade>
</opencv_storage>
